#ifndef PARAMETERS_H
#define PARAMETERS_H

// Automatic Export from PyTorch
// Float32 weights for HLS verification

// Layer: conv1_weights | Shape: (6, 1, 5, 5)
const float conv1_weights[6][1][5][5] = {
	0.10596702, 0.15643616, -0.15887703, 0.04919169, -0.00205919, 0.23536994, -0.12053387, -0.08744787, 0.21147829, -0.08064681, 
	0.08867006, 0.08242127, -0.00002819, 0.09359671, 0.05361264, -0.02131094, -0.06128933, 0.05651690, 0.09314746, 0.18221253, 
	0.01413143, 0.24969232, 0.01857020, 0.14777842, -0.04374404, 0.14604482, -0.09796517, -0.21380138, 0.00070965, -0.08120859, 
	-0.17722107, -0.03432328, 0.11870912, 0.03064032, -0.05174902, -0.21059687, -0.03485021, -0.11543174, -0.15381408, -0.07499174, 
	-0.12363546, 0.20189367, 0.18935382, 0.17800081, 0.17692980, 0.04983217, 0.17613009, 0.05722273, 0.22238429, 0.01316029, 
	-0.21790977, -0.25464410, -0.22449814, -0.14452836, -0.07995128, 0.02645382, -0.07751409, -0.17675753, -0.06093629, -0.25451040, 
	-0.13399646, -0.23413436, -0.22457770, -0.16212095, -0.12741517, 0.11418596, 0.05548829, 0.18275677, 0.16873041, -0.06502646, 
	-0.12305887, 0.04288965, 0.00557992, -0.04618043, -0.13304444, -0.03606465, -0.13530181, -0.14943543, 0.08697913, 0.15129271, 
	-0.09710383, -0.19457406, 0.02506494, 0.02494553, 0.08745966, -0.07229213, -0.00591815, -0.28112298, -0.19640759, -0.15148947, 
	-0.00000222, -0.21778916, -0.00954604, 0.14006938, -0.07539722, -0.11447694, -0.15353046, -0.17691268, 0.11568336, 0.15931292, 
	0.12917480, 0.16523229, 0.02626035, -0.04260264, -0.02749704, 0.03506063, -0.11679399, -0.08012904, 0.05527055, 0.08790870, 
	-0.14442879, -0.07022958, 0.06147892, -0.17102838, 0.04057755, -0.13060039, 0.00472894, -0.08130620, -0.18559755, -0.20941907, 
	0.00758018, 0.10178955, -0.15496080, 0.13410112, -0.21818377, 0.24189267, 0.15683573, 0.17097883, -0.10772506, -0.13318294, 
	0.02943764, -0.15683788, -0.08407525, -0.12305540, 0.15968388, 0.13149333, 0.02191685, -0.19395144, 0.05088267, 0.17533357, 
	0.02648598, -0.20043360, -0.27167007, -0.12501831, -0.04953131, -0.08448204, 0.07895844, -0.09260538, -0.14121041, 0.13042626, 
	
};

// Layer: conv1_bias | Shape: (6,)
const float conv1_bias[6] = {
	-0.12326150, 0.22130729, 0.23733142, 0.01764736, -0.19222592, 0.10300693, 
};

// Layer: conv2_weights | Shape: (16, 6, 5, 5)
const float conv2_weights[16][6][5][5] = {
	-0.05201764, -0.03841074, 0.00263357, -0.00571514, -0.07835536, -0.07867073, 0.03056417, 0.11023065, 0.08529662, -0.07726510, 
	-0.06284977, 0.03743500, -0.03870010, 0.03501641, 0.02039491, 0.02271823, 0.05488847, 0.03826568, 0.02293184, 0.08039209, 
	-0.03648119, -0.05625043, 0.04901532, 0.04859030, -0.02585826, 0.06863432, 0.04763182, -0.02572665, -0.00429830, -0.05944667, 
	0.10225532, 0.05403699, -0.05930588, 0.03901822, -0.06700568, -0.02023102, 0.02125955, -0.01389135, 0.07625033, 0.09411175, 
	0.02135542, -0.07153323, 0.04111594, 0.00896866, 0.09588021, 0.07772767, -0.05721005, 0.06221076, 0.03784978, 0.07704550, 
	0.11081516, 0.07789639, -0.00618138, -0.05695939, 0.05105050, 0.06631781, -0.00847192, -0.02301596, 0.02641437, 0.03743600, 
	0.08857790, 0.02837112, 0.02756119, 0.00191702, 0.05301483, 0.09510101, -0.05326049, -0.06105785, -0.05481765, 0.00539206, 
	-0.01160233, 0.00145092, -0.06415528, -0.03377650, 0.07186454, 0.10641047, 0.05537623, -0.07749076, -0.00594523, -0.04334559, 
	-0.01613429, 0.01144256, -0.09242379, 0.05750633, 0.02150266, 0.09943118, 0.05265052, -0.10579515, -0.05288697, 0.01500621, 
	-0.03653105, -0.05586039, 0.02821762, -0.04002654, -0.03891183, -0.05295194, 0.02869126, 0.09094436, 0.08638854, 0.01956216, 
	-0.10643109, -0.02887724, -0.01295219, 0.02593432, -0.08728874, -0.12705225, -0.02571607, 0.00068293, 0.03207421, 0.06762110, 
	0.00593036, -0.10764394, -0.07986168, -0.06564286, -0.03096105, 0.01367448, 0.03506853, -0.01058171, -0.08127494, -0.06453853, 
	0.01713843, 0.04791273, -0.00069959, -0.07345256, -0.01707932, 0.09214221, -0.05959796, -0.07175894, -0.00380008, 0.09705807, 
	0.07063248, -0.10397176, -0.01195438, 0.01621884, 0.11041553, -0.04897226, -0.07923896, 0.03273701, -0.04571558, 0.03063162, 
	-0.09164567, 0.06738005, -0.00930026, 0.03348945, 0.07182036, -0.07226341, -0.00018215, 0.10512023, -0.02193673, 0.04292287, 
	0.10294227, -0.01101709, 0.09632370, 0.05125436, -0.03792978, 0.02545580, -0.02015672, 0.04244678, 0.06165649, -0.05500907, 
	0.04004225, -0.02408112, -0.00222675, 0.01713975, -0.07340591, -0.03947043, 0.00543015, 0.03373881, -0.04008337, -0.04723135, 
	0.02969193, 0.04291219, -0.07876809, -0.03893249, 0.01101414, 0.10476076, 0.02185265, 0.03408289, 0.03411731, 0.04379435, 
	-0.02149289, 0.06434038, 0.01251746, 0.02360039, 0.07864107, -0.03289779, -0.07006236, 0.05426112, 0.09870360, 0.02454497, 
	0.06829865, -0.03421496, -0.01996467, -0.00992856, -0.06112218, -0.01960018, 0.06274463, -0.05844319, 0.03184635, 0.05038038, 
	0.07633499, 0.04345015, -0.04523681, -0.04394325, -0.02704887, -0.05171870, -0.03059768, 0.09364537, 0.03643672, -0.05806992, 
	-0.04155783, 0.05754755, 0.01408918, 0.04216959, 0.02939627, 0.05067138, -0.05215661, 0.03838147, -0.06415978, -0.03192353, 
	0.06980342, 0.03993136, -0.05737689, -0.01519890, -0.01292794, 0.05268445, 0.02968268, -0.00550075, -0.01253384, -0.07401738, 
	0.09054313, -0.05607312, 0.01688903, 0.08925778, 0.03782743, -0.05421872, -0.07807110, 0.03470309, 0.04246157, 0.07179841, 
	-0.04574194, -0.04044708, -0.00865954, 0.01743385, -0.02454589, 0.01957326, 0.07356489, -0.00157776, -0.04008577, 0.05355676, 
	-0.05589625, -0.04122955, -0.05022068, -0.08777218, 0.03463089, -0.10730469, 0.01292292, 0.04616166, -0.02927153, 0.03654114, 
	-0.08961471, -0.05993899, 0.03085440, -0.01696473, 0.03615260, -0.05337794, -0.10264811, 0.01788411, 0.00650911, -0.02800722, 
	-0.06111938, -0.00932440, 0.03282338, -0.04693981, -0.08707745, 0.04439367, -0.00370803, 0.08171581, 0.06822748, 0.04061789, 
	-0.06740659, -0.05134716, -0.03949709, 0.09962696, -0.03718639, -0.03292913, 0.04436271, 0.09145805, 0.04732515, -0.03053215, 
	-0.03390847, 0.05952455, -0.02467915, 0.01254113, 0.02802767, 0.01429640, -0.01810237, 0.02388157, 0.04074857, 0.10788164, 
	0.05386778, 0.07997367, 0.07641894, 0.08944342, 0.09282677, 0.05170925, 0.00046533, 0.12540168, 0.10851392, 0.14159463, 
	-0.00860977, -0.05098815, 0.08965120, 0.06268892, 0.06596541, -0.01568230, 0.00785183, 0.04981889, -0.02899569, 0.05525807, 
	-0.02221793, 0.02496528, -0.00384703, -0.03976772, 0.01405879, 0.06694447, 0.06498277, 0.07293768, 0.11429765, 0.10976892, 
	0.07473892, 0.02730931, -0.01378416, 0.02847546, 0.10166720, 0.03645211, 0.06449077, 0.08543275, -0.04239355, 0.04173691, 
	-0.03329609, 0.06731616, 0.08854613, 0.03648593, -0.09999322, -0.08608738, 0.03985566, -0.03727097, -0.04984515, 0.01237657, 
	0.02200618, -0.04703549, -0.03291922, 0.02325864, 0.04113723, 0.03024996, -0.03274960, 0.02676638, 0.06644475, -0.00731366, 
	-0.05685003, 0.00399721, -0.05989786, -0.06344643, -0.06733353, 0.01330441, 0.04777973, 0.08389852, -0.00996456, -0.01508243, 
	0.01065901, 0.02992671, 0.00346715, 0.09104317, 0.00488046, -0.02140700, 0.07005160, -0.01625367, 0.08683618, 0.04866991, 
	-0.06170196, -0.07417975, 0.02578405, 0.06821885, -0.03021123, 0.04186564, 0.06005685, -0.04117951, 0.06469583, -0.01415373, 
	0.00956535, -0.06374392, 0.00768223, 0.02402632, -0.01764453, -0.03299226, 0.08761384, -0.02882826, 0.03842227, 0.02618214, 
	-0.10582799, -0.08084619, -0.07058679, -0.05128162, 0.07606474, -0.07999006, 0.00383418, 0.01374356, -0.02259577, -0.10294350, 
	-0.07086114, -0.11269798, -0.04152254, -0.07665895, -0.07819646, 0.04189571, -0.06160032, 0.03299802, 0.04676992, -0.09329471, 
	-0.00134839, -0.05313473, -0.06440444, 0.00796661, 0.05513341, 0.07012087, 0.05130048, -0.01202008, -0.06990811, 0.04350800, 
	0.03492338, -0.04276938, 0.01018755, -0.04073860, -0.07130068, -0.04330849, -0.04172746, 0.04566422, -0.00303043, 0.06975143, 
	0.12943257, -0.04435453, -0.03211350, 0.04159666, 0.05716372, 0.13952658, -0.03331339, -0.00266158, 0.11874948, 0.00144477, 
	0.08329828, 0.01135217, 0.08039457, -0.00087725, 0.12476394, 0.09312267, 0.04623028, -0.04665674, -0.00763897, 0.07819286, 
	-0.05979275, -0.00230156, 0.05835276, 0.09025963, 0.03602171, -0.07767254, 0.08533791, 0.04285368, -0.01498612, 0.08088968, 
	-0.05612390, 0.02460928, 0.04732226, -0.06270193, -0.04050212, 0.01085404, -0.02788603, 0.00414856, -0.05723004, 0.06455150, 
	0.10840325, 0.07466401, -0.03185688, 0.04817437, 0.08235058, 0.04710893, -0.05134127, 0.00497010, 0.05603412, -0.00057735, 
	0.03189370, 0.01330138, 0.10861877, -0.05284643, 0.04423700, 0.08051392, 0.03545009, 0.00138056, 0.02371126, -0.05832420, 
	0.02639729, 0.00984307, -0.04290119, -0.04354137, -0.02177125, -0.03019806, -0.03281551, -0.04171536, -0.00974112, 0.00807209, 
	0.00372418, -0.01514917, -0.02380401, -0.00583450, -0.00290068, 0.01371450, -0.06354888, 0.05612773, 0.09058223, 0.07270956, 
	-0.01569092, 0.05717837, 0.04367793, 0.02565233, -0.02166818, 0.08371601, -0.04858922, 0.03878286, -0.00906936, -0.01988478, 
	0.00202210, 0.09211908, 0.01493644, 0.02577824, 0.04870738, -0.02265779, 0.05639198, 0.03964215, -0.04927218, 0.03041028, 
	0.01484664, 0.03946763, 0.00278786, -0.00448758, 0.08272489, -0.03753972, 0.06417501, 0.03138107, -0.06111474, 0.04384097, 
	-0.05860122, -0.01184748, -0.10614584, -0.04214739, -0.10233659, -0.09877665, -0.04465209, 0.00564033, -0.05403851, -0.05461295, 
	-0.10482123, -0.01521212, -0.07185102, -0.05801962, -0.02503433, 0.02530486, -0.10361163, -0.10837310, -0.02013928, -0.03051047, 
	0.03240030, 0.02038178, -0.02057679, -0.04606516, -0.04145104, 0.10108218, 0.04500857, -0.07725657, 0.01930537, 0.02269835, 
	0.07467704, 0.08901424, -0.00845735, -0.01208660, 0.07753727, -0.05735456, 0.00210194, 0.00977392, 0.06431898, 0.02194356, 
	0.05030610, 0.01082788, -0.01379890, 0.10664283, 0.07581211, 0.05500738, 0.10889699, 0.08503433, 0.10259506, -0.02377191, 
	0.05630100, 0.03612043, 0.05626525, -0.04147910, -0.05868173, 0.02518071, -0.01550838, -0.06348465, 0.06126927, -0.00671088, 
	-0.01828723, 0.09209873, 0.06167024, -0.02929813, 0.05406667, 0.07064728, 0.01998339, -0.04734696, 0.00207672, -0.04881690, 
	0.03502396, -0.03858441, 0.08144829, 0.03256787, 0.03897569, 0.01491365, 0.08093199, 0.08850569, -0.04262234, -0.00975620, 
	0.01228574, 0.02430819, 0.07618664, -0.00013235, -0.05475643, -0.04492263, 0.04813640, 0.05716363, -0.05226049, -0.03067346, 
	-0.05065900, 0.05353839, -0.04938194, 0.10065843, 0.06406822, -0.08901401, 0.07214209, -0.00069832, 0.07905231, 0.04109275, 
	-0.04788424, 0.09472831, 0.01309368, 0.06723011, -0.00691764, -0.06492842, 0.01250977, -0.05170587, -0.01368882, 0.11250047, 
	0.02198916, 0.01954451, 0.06023345, 0.09346840, 0.05399726, -0.03505015, -0.01575097, -0.03895995, -0.04851430, -0.03247835, 
	0.05125331, 0.01298328, -0.07238622, 0.07843772, 0.03027759, 0.08686657, -0.01066885, 0.06051708, 0.05980203, -0.01034384, 
	-0.03231161, -0.07753230, -0.06723667, -0.05847507, -0.05847935, 0.06688305, -0.02228136, 0.00565915, 0.07253513, 0.05582645, 
	-0.02508493, -0.03715231, 0.03354842, 0.08258823, 0.02306327, -0.01442834, -0.05773392, -0.02278455, 0.05264080, -0.07191315, 
	0.00671235, 0.04581705, -0.10636190, -0.09705698, 0.05490156, -0.06549731, -0.06462796, 0.03135233, -0.04178366, -0.02545105, 
	-0.13775992, -0.06974944, -0.01264333, -0.06574667, -0.09453551, 0.00118225, 0.01696165, -0.03610308, -0.08146413, -0.03029014, 
	0.04365524, 0.02549541, -0.11108374, -0.12372103, 0.00733545, 0.10671057, -0.06110449, 0.03578899, 0.09532345, -0.05389028, 
	0.00069303, -0.06197372, 0.07398617, -0.02801420, -0.05504188, 0.02312686, -0.09410296, 0.02601038, 0.07236816, 0.00130072, 
	0.02596907, -0.07026986, -0.01612512, 0.01954211, 0.01898006, 0.01283400, 0.01556408, 0.01855369, 0.01241392, 0.04476363, 
	0.04239570, -0.06215219, -0.01329560, 0.09773783, 0.02604291, -0.00080032, 0.08804679, 0.11452208, 0.07435354, 0.02824883, 
	0.06467724, 0.06267622, 0.01044967, 0.04403586, 0.04872903, 0.07882807, -0.01724815, 0.00921479, 0.09734832, 0.03695679, 
	-0.03178771, -0.00182962, -0.07156680, -0.09599310, 0.02051482, 0.06709027, -0.01563368, 0.11705725, 0.14393587, 0.06753242, 
	0.06276650, 0.01483639, 0.15402414, 0.03995244, 0.02498515, 0.06004840, -0.01282242, 0.00554361, 0.07957948, 0.07058809, 
	-0.00121615, 0.09543708, 0.07326552, -0.01225064, -0.10354677, 0.07836448, -0.00546722, -0.07713056, -0.10595465, 0.03182668, 
	-0.01523753, 0.06959947, 0.12405068, -0.03003379, 0.11758628, 0.08419161, 0.01946186, -0.04046633, 0.08706426, 0.02629106, 
	0.06788272, 0.02216163, -0.00929457, -0.04161420, -0.09969509, 0.04419282, 0.00358916, 0.03838138, -0.11660759, -0.04569551, 
	0.00000510, 0.03440295, -0.09592524, -0.04805615, 0.00417819, -0.02012253, -0.01590611, 0.09432614, 0.03850560, 0.01255107, 
	0.05773975, 0.07885642, -0.00552781, -0.09664271, -0.06491341, 0.07774580, -0.04464022, 0.03856793, 0.00413154, -0.09690157, 
	0.02819658, -0.04380704, -0.10302519, -0.07327993, 0.01825743, 0.06865344, 0.01848865, 0.02260162, 0.03342808, 0.00735628, 
	0.00703027, -0.04077079, 0.05796044, 0.04899190, -0.06610017, 0.02945706, 0.00484477, -0.09337780, -0.14693108, -0.00192214, 
	0.00633929, -0.12983823, -0.06630261, -0.13427456, -0.11721401, -0.00163735, -0.09820241, -0.07209112, -0.00980951, -0.00151341, 
	-0.01355975, -0.05654793, -0.04021776, 0.07768140, 0.04500055, 0.05955712, 0.10050903, 0.12250680, -0.06602558, -0.05707510, 
	0.00097756, -0.03446014, -0.09326416, -0.13620536, -0.08289874, 0.10815290, 0.04579436, -0.14567639, -0.02888910, -0.07815911, 
	0.11597994, -0.05928469, -0.08811035, -0.06173601, 0.03913074, 0.07193203, -0.00593907, 0.02344319, 0.11194455, 0.11963448, 
	0.01668295, 0.10419616, 0.07298649, 0.02233040, 0.13162965, 0.07912143, 0.11591559, 0.12861179, 0.01727481, 0.03679399, 
	0.06601603, 0.11628827, 0.07692910, 0.09186555, -0.04439600, 0.09721664, -0.10237925, 0.08746301, -0.11022715, -0.00028385, 
	0.00673381, -0.01183428, -0.07937188, -0.11005035, -0.11113492, 0.16269296, 0.13028702, 0.00794666, 0.01036934, 0.08204315, 
	0.07990482, 0.04699888, -0.04295265, -0.00556319, 0.01077125, 0.01247592, 0.04040078, -0.02217485, 0.01871690, -0.08571886, 
	-0.09004112, -0.06953008, -0.00389502, 0.09314091, -0.05245493, -0.00798032, -0.08419647, -0.01684023, 0.03500186, 0.01938551, 
	-0.01784176, -0.04081836, -0.03120055, -0.04614320, -0.11614519, -0.03013470, 0.01516671, -0.09819867, -0.11151255, -0.07171665, 
	-0.12392407, -0.03997565, 0.03496752, 0.02254861, 0.07417979, -0.11883857, -0.00966281, 0.02010124, -0.02837631, 0.08671909, 
	-0.06725211, 0.02464483, 0.10577959, 0.08492229, 0.00853219, -0.04039294, 0.02109978, -0.05341559, -0.05924303, -0.10782418, 
	0.00065548, -0.01905187, 0.03381996, 0.00088252, 0.06178508, 0.00231200, -0.11857521, 0.04544026, 0.07973973, 0.03737374, 
	-0.04167446, -0.00272789, -0.00171657, -0.01962469, 0.09708658, 0.08363797, 0.04762768, 0.12891726, 0.10593303, 0.07982790, 
	-0.00531803, -0.01524657, 0.04546263, 0.01262864, -0.11324177, -0.05964154, 0.00044831, -0.05667411, -0.01608157, -0.07740149, 
	-0.02059994, -0.02581495, 0.00347606, 0.05849091, 0.03795318, 0.02628916, -0.01368213, 0.10150979, 0.06803556, -0.00015393, 
	0.08019258, 0.13916071, 0.15672342, 0.10289229, 0.05521935, -0.01627530, -0.05616383, -0.11853469, -0.02824612, -0.06810533, 
	-0.02454527, -0.13872060, 0.00601127, 0.14304243, 0.07482553, -0.01042291, -0.05169118, 0.04798920, 0.02926192, 0.16190454, 
	0.10593337, 0.08697421, 0.02838169, 0.01839016, 0.11692433, 0.03333747, 0.17722759, 0.11877286, 0.09401067, 0.14705646, 
	-0.07038668, -0.04933249, -0.06600239, -0.02778584, -0.01665004, -0.03973601, -0.03195316, 0.02237462, -0.08469827, -0.13001406, 
	0.08111379, 0.00769210, -0.10336808, -0.03941070, 0.02150129, -0.01115292, 0.06090022, 0.04674704, -0.05551458, -0.06448286, 
	0.07017285, 0.03102462, 0.10293254, 0.01458159, -0.05490451, 0.01925494, -0.03782934, -0.02491724, 0.01476031, 0.09546596, 
	0.00771988, 0.09776542, 0.00144526, -0.02445205, 0.07708373, 0.07444685, 0.00160421, -0.01732040, 0.00515009, 0.01452365, 
	0.11125387, 0.08555815, 0.00264067, -0.03430936, 0.01126222, 0.05754950, 0.09284097, 0.01425802, 0.08830624, 0.08147339, 
	-0.06673643, 0.05973433, 0.03611483, 0.05764252, 0.05403053, 0.02672084, 0.03694696, 0.08854452, -0.03319413, -0.03277665, 
	-0.08044972, 0.06311078, 0.07062144, 0.08960689, -0.06620771, -0.07861701, -0.06447069, 0.07359465, 0.08139814, 0.05675858, 
	0.04441898, -0.00573360, 0.04006321, -0.01079529, 0.03689726, 0.06462304, 0.01298941, 0.08215594, 0.02075173, 0.06625362, 
	-0.02141473, -0.00448284, -0.01298579, -0.00904982, 0.01343057, -0.04687985, -0.01073688, 0.02930278, 0.06491768, 0.08399405, 
	-0.06238399, -0.00093840, 0.02668001, 0.10041547, 0.02322088, -0.07332148, -0.02850807, 0.02137221, 0.07194202, -0.05380770, 
	-0.01408333, 0.01337600, 0.10845846, 0.08671831, 0.03317769, -0.01215499, 0.05697072, 0.08339753, 0.02185218, -0.00126470, 
	-0.07183826, 0.03942667, 0.06613921, -0.04716160, -0.00895991, -0.04584363, 0.01050215, 0.08887488, 0.01667290, 0.05620807, 
	-0.09615509, -0.01057468, 0.07575729, 0.01715146, 0.06566221, 0.07486261, -0.00531309, 0.04088311, 0.05894915, -0.06736334, 
	-0.04401530, 0.04792501, 0.04009068, 0.02788757, -0.01391165, 0.00012205, -0.01544452, -0.03607600, 0.03822835, 0.03986173, 
	-0.03636653, -0.02975389, -0.04461224, 0.06995803, 0.02207685, -0.04554700, 0.00062819, 0.00123761, 0.03189944, 0.03987667, 
	-0.12070783, -0.06786342, -0.02132534, 0.02856443, -0.09411309, -0.09486163, -0.10990293, -0.03679592, -0.05754616, -0.02276946, 
	-0.05493924, 0.07566265, 0.00756921, 0.01423818, -0.07065570, 0.02897142, 0.10955851, 0.05027299, 0.09317898, 0.05571086, 
	-0.01254248, 0.08790481, 0.05191348, 0.05993488, 0.13723882, -0.01772512, -0.05791293, -0.09636781, -0.03046959, -0.06660012, 
	-0.02704741, 0.03554514, -0.01875149, -0.01539560, -0.00083779, -0.04406573, 0.08173455, -0.00067468, 0.09776373, -0.01847558, 
	-0.03405589, -0.05770797, -0.05032163, 0.03712715, 0.13681251, 0.01924695, 0.09395441, 0.00101832, 0.03612978, 0.13177957, 
	0.04458857, 0.03371641, 0.03815304, -0.01655525, -0.09872209, 0.06906521, 0.06462839, 0.08396878, 0.09360581, 0.07847260, 
	0.06993251, 0.10359024, -0.01286080, 0.03259436, -0.00157484, 0.04275280, 0.04880595, -0.02246851, 0.01429777, 0.02169728, 
	-0.03417039, 0.09532088, -0.01491691, -0.06502767, -0.01162531, -0.04919372, 0.02015162, 0.08199640, 0.03199528, -0.03093459, 
	0.03887080, 0.01088734, 0.04741705, 0.01659798, -0.01643147, 0.03134266, -0.02964542, 0.02660190, -0.02195767, 0.03465714, 
	0.06326316, -0.02564581, 0.06824446, 0.05975717, 0.05519063, -0.08542082, 0.06456234, -0.00178778, 0.03412860, -0.01593738, 
	0.04487638, 0.08040714, 0.06850091, 0.02989698, -0.02612021, 0.03700230, 0.10330529, 0.05825530, 0.06154322, 0.08944695, 
	0.02619120, 0.00109197, -0.04465831, 0.02216211, 0.03505429, 0.03840230, 0.01021303, -0.05148688, -0.00207636, -0.08916317, 
	0.02499500, -0.06431245, -0.08215598, 0.05522800, 0.00965045, 0.05485701, 0.09543379, 0.08396150, 0.06344746, 0.05238983, 
	0.08346494, -0.00068347, 0.01013356, 0.00051838, 0.08572115, -0.01711140, 0.05323683, -0.06313276, -0.06279387, -0.06137942, 
	0.02881120, -0.04240796, -0.03645439, 0.05875663, 0.06034944, -0.01495650, -0.01578014, -0.04190065, -0.03086633, 0.02276515, 
	0.02819755, 0.02061900, -0.03555618, -0.00022089, -0.00360792, -0.07964326, -0.01926039, -0.05072525, -0.03485066, -0.04213906, 
	0.04875332, -0.06392173, -0.03643772, 0.01351111, 0.06263259, 0.00254720, 0.05648637, 0.02303910, 0.03188748, 0.02908972, 
	0.03764004, -0.03829395, -0.00269262, 0.03209404, 0.02662273, 0.06143178, -0.04535513, 0.04091699, -0.07795120, 0.03116227, 
	-0.03121190, -0.06686783, -0.00966471, -0.00193057, 0.02522866, -0.02503325, -0.00556380, -0.01441749, -0.05854158, 0.03606682, 
	-0.04546578, -0.01000946, -0.05916079, -0.07909890, -0.03628439, 0.00046044, 0.01601642, -0.03740710, -0.02766459, -0.02532772, 
	0.06783739, -0.06524123, 0.00917272, -0.05008480, -0.07904113, 0.02319055, 0.02372698, -0.06833122, 0.07685773, 0.07330786, 
	-0.03279755, -0.03400989, -0.01170448, 0.03123794, -0.06370837, -0.05473630, 0.03183949, 0.06931067, -0.01952537, -0.00559794, 
	0.00808512, 0.01422358, 0.00573060, 0.04544570, 0.03592860, -0.03950126, -0.06681409, -0.03758631, -0.00169830, 0.08035409, 
	-0.04136526, 0.05374898, 0.07120344, 0.03467117, 0.02850354, 0.03871828, 0.01363351, -0.05691515, -0.05824232, -0.04413214, 
	0.03973540, -0.03475242, -0.02160323, 0.06818140, -0.01369092, -0.04066968, 0.04977681, -0.06167294, -0.07658813, -0.01334167, 
	-0.07109109, -0.06955621, -0.02908783, -0.06240124, -0.07024473, -0.03976965, -0.02689908, 0.00685865, -0.01801448, -0.01283544, 
	0.02191328, 0.02501350, -0.05123620, 0.07734194, 0.00679556, 0.01332182, 0.00174308, -0.06744966, -0.03083152, -0.08159122, 
	-0.03749390, 0.07177261, 0.00730241, -0.05168735, -0.03224892, 0.00720780, -0.07443006, -0.01428407, -0.03944752, -0.02155419, 
	0.00728087, 0.05425130, -0.06067177, -0.04392505, -0.07326088, -0.04938637, -0.01099154, 0.04353334, -0.03944015, 0.05731118, 
	-0.01502331, -0.04079613, -0.03527187, 0.04656880, -0.05827096, -0.02082825, 0.00401402, -0.02158578, 0.06971551, 0.07947192, 
	0.13061753, 0.00568309, -0.10940236, 0.04929674, 0.00768628, 0.13519959, 0.02123419, -0.01663698, 0.01404301, -0.06004380, 
	0.09758932, 0.14550318, 0.10254144, 0.04495599, 0.05468794, 0.03037964, 0.09257714, 0.06811961, 0.06325947, 0.04503318, 
	0.00758305, 0.03981647, -0.05446051, 0.06655030, -0.00027982, 0.06287457, 0.07230765, 0.05803395, 0.08329173, 0.04841014, 
	-0.02741659, 0.03323734, 0.08148707, -0.03651881, 0.01482420, 0.03543694, 0.10446975, 0.03722747, 0.07866905, 0.10491019, 
	0.06972069, 0.03002691, 0.09492808, 0.10553998, -0.04359619, 0.09933632, 0.05422652, -0.06699377, -0.03857768, 0.06836837, 
	0.01444390, -0.01235724, -0.04684792, 0.09367769, 0.10853383, 0.04008290, -0.04723749, 0.05967953, 0.05215875, 0.11283984, 
	-0.01423207, -0.01572874, -0.01631039, 0.02407347, 0.04057129, 0.01340260, -0.03327009, -0.07707198, 0.06109717, 0.02442410, 
	-0.04925450, 0.03228529, -0.02494857, -0.03185340, 0.00297854, -0.07982612, 0.02640791, 0.04448590, 0.08131915, 0.06160331, 
	-0.09973077, -0.07111249, -0.07238708, 0.01519865, -0.04531499, -0.08492271, -0.00388764, -0.01590115, -0.06768608, -0.05307858, 
	-0.06220682, -0.04576745, -0.06248626, 0.03923208, -0.03306216, 0.01324201, 0.03070084, -0.09116737, 0.05509814, -0.08416502, 
	-0.04573781, -0.07327869, 0.06081694, -0.05026549, 0.05233714, -0.00106500, -0.09378979, -0.03500927, -0.00239550, -0.03467799, 
	-0.13287485, 0.03003265, 0.04164157, -0.08639813, 0.00354046, -0.12883370, -0.02779790, -0.03334789, 0.00450313, -0.05203028, 
	-0.03230243, -0.00754150, -0.07866716, 0.02226345, 0.03168498, 0.05493291, -0.08987983, 0.10737250, 0.02225920, -0.04092079, 
	-0.11060995, 0.02073400, 0.00347753, -0.02776179, -0.04162884, 0.00232167, -0.03807270, 0.08141422, -0.03619286, 0.05724572, 
	-0.01527267, 0.06970981, -0.07901394, -0.02652350, -0.07482956, 0.06205656, 0.08561305, -0.02962096, 0.02263060, -0.02122589, 
	0.00144342, -0.06102079, -0.10485873, 0.05411888, 0.02398030, -0.11158548, -0.06945558, -0.00352511, 0.02777253, -0.06168804, 
	-0.07217810, -0.08035622, -0.00828200, -0.07035770, -0.08111610, -0.04630026, -0.01115173, 0.09602869, -0.00836169, 0.07214360, 
	0.12884006, 0.03563049, 0.08897733, 0.11695261, 0.09598096, -0.02844536, -0.01478221, -0.10753196, -0.07766245, -0.09511767, 
	0.04341293, -0.03400561, -0.08226759, -0.01768859, 0.04078194, 0.07883573, -0.00774637, 0.02099829, 0.08197144, 0.08899280, 
	-0.03018245, 0.03910724, 0.02411122, 0.02660730, -0.02611766, 0.12656134, 0.01382977, -0.00234430, 0.10934424, 0.12466389, 
	-0.04557277, -0.04609651, 0.04687053, -0.10307607, -0.01533484, 0.06615654, -0.02072540, 0.04088823, -0.00244101, 0.03151812, 
	0.06124065, 0.02231980, 0.10393761, 0.09879455, 0.05815897, 0.00773686, 0.09044074, -0.00113927, 0.01044171, -0.00030266, 
	0.04618175, -0.04006629, -0.06781176, 0.00729360, 0.04311679, 0.03801667, -0.02210883, -0.02689804, -0.06382763, 0.02560061, 
	0.07715017, 0.03164130, 0.00851752, 0.06176359, 0.04252600, -0.06642736, 0.04804517, -0.03316716, 0.07655802, 0.03244130, 
	-0.05605092, 0.03106995, 0.00994289, 0.06152912, 0.07964568, -0.06282067, 0.01264226, -0.06157412, 0.06167440, 0.09190487, 
	0.03659660, 0.07422896, 0.07993716, 0.08591167, 0.04103871, -0.00639600, 0.10425336, 0.11945635, 0.05583581, 0.12110326, 
	0.00755332, 0.05559659, 0.09334739, 0.03494700, 0.06894794, -0.02095925, -0.03009936, 0.02107259, -0.00157440, 0.05953247, 
	0.04835676, 0.05052014, 0.09077658, 0.06518582, -0.00726279, -0.08073262, 0.07391211, 0.09127914, 0.04899052, -0.04646695, 
	-0.08396986, -0.04908523, 0.06502378, -0.00433003, 0.11181922, -0.05322974, 0.04351425, 0.01799527, -0.03067518, 0.01248070, 
	0.05004433, 0.08485745, 0.00732679, -0.00700709, 0.09090813, -0.00039413, 0.05051053, 0.03432777, -0.08434737, 0.02918849, 
	-0.00955485, -0.12854406, -0.11996921, -0.13345011, -0.01547635, -0.03650484, -0.04149148, -0.06963868, -0.09077001, 0.00162669, 
	0.00876180, -0.05321019, 0.03258703, -0.07467669, 0.07768542, 0.03385893, 0.05758467, 0.01519544, 0.02126543, 0.01552858, 
	0.01598397, 0.12317668, 0.13128583, 0.08097540, 0.01259100, 0.00668766, -0.05689798, -0.07499446, 0.03208537, -0.06947593, 
	-0.04137704, -0.07733008, -0.05605576, -0.02565704, 0.07151338, -0.00547339, -0.04533053, 0.09134877, 0.09413902, 0.01812493, 
	0.01103358, 0.05700030, 0.03909250, 0.10960633, 0.06282205, 0.11160101, 0.04416399, 0.07848092, 0.07853595, -0.00666538, 
	0.05684290, 0.03808371, -0.01097655, 0.07680832, -0.00927665, 0.05119998, -0.00909884, 0.08504985, 0.05899037, 0.06174454, 
	0.06574569, 0.05445304, 0.05683272, 0.08569070, 0.09386091, -0.01120424, 0.02980929, 0.01351103, 0.10425764, 0.01009905, 
	-0.02230320, -0.03797188, 0.07272919, 0.04938892, -0.02473093, 0.06811918, 0.07431791, -0.06926759, -0.03372876, -0.05845137, 
	-0.01288073, -0.05273381, -0.05833318, -0.04356016, -0.00255084, -0.04792080, 0.04949308, -0.03533090, -0.02001883, -0.02056812, 
	0.04636658, 0.03874371, 0.04099760, 0.07947177, -0.02101658, 0.05174336, 0.00057057, -0.07123009, -0.04483735, -0.08581807, 
	0.10282803, 0.09253418, 0.01403261, 0.04386030, 0.04781570, 0.09040900, 0.03431410, 0.11506229, -0.00511272, 0.10166155, 
	0.04855051, 0.10893643, -0.03435863, 0.06821851, 0.07396610, 0.02548283, 0.03495544, 0.03666753, 0.01981978, -0.05965077, 
	-0.00199436, -0.01977029, -0.07513008, -0.04735914, -0.10470733, -0.05570301, 0.08560853, 0.00090729, 0.08440939, 0.03686024, 
	0.06402893, 0.01221526, 0.04303962, 0.08852690, -0.00537385, -0.03689168, -0.03244375, 0.08701052, 0.05593327, 0.00119807, 
	-0.01974795, -0.06290070, -0.05578082, 0.02020605, 0.07217317, -0.09343567, -0.03694741, 0.01660415, 0.01799895, 0.05787412, 
	0.06055792, 0.00911454, -0.09498846, -0.08171064, -0.11305040, -0.00276429, 0.10929169, 0.09547587, 0.06875287, -0.06053190, 
	0.00050801, 0.10868315, 0.11268197, 0.00865084, 0.00504411, 0.07668967, 0.06959230, 0.04591200, -0.00665856, -0.00764157, 
	-0.06306712, -0.06690435, 0.01630201, -0.03113876, 0.00856911, 0.11940820, 0.05631925, 0.00541857, -0.01950111, 0.13075984, 
	0.09908871, 0.11930016, 0.08044966, -0.01654245, 0.03705873, 0.02014742, 0.02227014, -0.03257743, -0.02601765, -0.05387381, 
	-0.04552044, -0.01405791, -0.06014359, -0.03216259, -0.02157925, -0.07384139, 0.02693444, -0.11236825, -0.06419103, 0.02599477, 
	0.08700959, 0.12522006, -0.00361900, 0.04090960, -0.02883928, -0.00904297, 0.07550669, 0.03484656, 0.11097101, 0.07418942, 
	-0.06232693, 0.00509786, 0.07757235, 0.10668053, -0.01254433, -0.03933040, -0.01495252, 0.03972398, -0.03795495, -0.00900059, 
	-0.00630559, -0.08647759, 0.02744696, -0.03034358, -0.01939210, 0.09439318, 0.05621107, 0.10682022, 0.05937994, 0.03616028, 
	0.03557964, -0.09981667, -0.05144585, 0.04022690, 0.05710219, 0.01459764, -0.11257987, -0.08806191, -0.05782445, -0.07638837, 
	0.02812599, -0.03971156, -0.01045295, -0.03935014, -0.08679213, 0.08245543, -0.06884232, -0.04803195, -0.06389589, -0.01229857, 
	-0.03244474, 0.04250702, 0.00742899, -0.02143839, -0.06602761, -0.13129583, -0.05524901, -0.04577514, 0.06072805, -0.06528503, 
	-0.03859280, -0.10952290, -0.09989224, -0.12129176, 0.05318837, -0.15170375, -0.04565854, -0.03587215, -0.10390685, -0.11557335, 
	-0.04096596, -0.05708073, 0.07392618, 0.04617032, -0.00229736, -0.02574765, -0.01807346, 0.11289028, -0.02172969, 0.06462964, 
	-0.11864714, 0.00365469, -0.05934388, 0.01426838, 0.07731272, -0.12737864, -0.05091210, -0.01588085, -0.08599249, -0.05776665, 
	-0.09821604, -0.05323327, 0.04607836, 0.02126963, -0.06828169, -0.04148125, 0.06832051, 0.07310405, 0.01744465, 0.08179531, 
	0.05879892, 0.08831699, 0.08008653, 0.06912158, -0.01873261, 0.06482597, 0.02438115, 0.09462287, 0.07132508, 0.10693582, 
	0.01499471, -0.02940828, -0.04641044, -0.01491452, 0.03666243, -0.08366453, -0.02764527, 0.06403167, 0.00728541, -0.04067585, 
	0.05209012, -0.00319049, 0.07935689, 0.06586296, 0.05639382, 0.03461203, 0.05726391, 0.01479482, 0.01133191, -0.02663022, 
	0.04842284, 0.08871384, -0.00425248, 0.12827139, 0.08871417, -0.06393949, 0.08886483, -0.02878082, 0.01515616, 0.04788081, 
	-0.06631725, -0.01118341, 0.10717217, 0.12288745, -0.01088623, 0.03792861, -0.00565837, 0.14744659, 0.13532265, -0.01333310, 
	0.00647630, -0.11299837, -0.12388993, -0.00620322, 0.03228001, -0.05169183, 0.00636026, -0.02632025, -0.04324491, 0.04986639, 
	0.00222049, 0.05134667, -0.05255483, 0.03446018, -0.09665330, -0.07062365, 0.07126848, 0.01656362, 0.02686262, -0.02973686, 
	0.04239473, 0.08087149, -0.02388098, 0.00343133, 0.02970212, -0.06651184, 0.04070295, 0.02970714, -0.00468502, 0.01738018, 
	0.08159513, -0.04140815, -0.07521571, 0.05993195, -0.11500768, -0.06976401, 0.03322655, 0.10216604, 0.04122320, -0.09633581, 
	0.03336656, 0.04879250, -0.04637806, -0.01994439, -0.03531247, -0.02178808, -0.05010341, 0.07669996, 0.06298631, -0.08408289, 
	-0.01498439, 0.06329616, 0.02114420, -0.02288708, -0.04723923, 0.01251698, -0.01387768, 0.03990144, 0.04392388, -0.02529455, 
	-0.07390612, 0.03073456, 0.01036631, -0.07717190, 0.01934022, -0.01115823, 0.08047930, -0.06764644, 0.06416990, 0.06227017, 
	-0.01567040, -0.03877857, -0.07894520, -0.01516957, 0.05471823, -0.01260346, -0.08209147, -0.00219775, 0.09174603, 0.06710004, 
	0.06116001, 0.01915151, 0.13180430, 0.00596292, 0.00830495, 0.12218490, -0.03161604, 0.07646141, -0.05336351, 0.05135570, 
	0.04079203, 0.05863651, 0.08587559, -0.05175077, 0.02171796, 0.08960465, 0.05626351, -0.03513809, 0.03215472, -0.02977395, 
	0.09331352, -0.06781449, -0.07243129, 0.00603033, 0.01194355, -0.00113055, -0.04047292, -0.01615970, -0.03288500, 0.03819102, 
	0.03861316, 0.07460088, 0.05745409, -0.00524522, 0.01390182, -0.00784277, 0.05923109, 0.03612543, 0.03061161, 0.04650595, 
	-0.01712360, 0.02300846, 0.01056464, -0.04485235, 0.03429160, 0.07796048, 0.00672256, -0.04575879, -0.01689325, 0.00515979, 
	-0.04658485, -0.11409569, 0.01866266, 0.05581322, -0.01263261, 0.10796792, -0.02993318, 0.11447138, 0.14315969, 0.03709290, 
	0.14118993, 0.05646098, 0.11675968, 0.02569479, 0.01325122, -0.01201274, 0.00361125, -0.00217186, 0.13171504, 0.13613348, 
	-0.08432329, 0.05429270, -0.07755651, -0.02985473, 0.00699760, -0.05566639, -0.04279363, 0.03012594, -0.03207089, -0.02365283, 
	0.02677901, 0.03236618, 0.05491824, 0.05334305, -0.00944672, -0.03475483, -0.03611935, 0.10297517, -0.06619781, -0.03361724, 
	-0.09833375, -0.01371202, -0.00613124, 0.04366629, 0.00886524, -0.12518141, -0.03458766, 0.10240122, 0.05840318, -0.04541960, 
	-0.02120414, 0.01544851, 0.08652936, 0.08392125, 0.07652616, 0.02397791, 0.02581717, 0.08838657, -0.05198459, 0.03763675, 
	-0.04675237, 0.07851570, 0.10110819, -0.01659034, -0.01636589, -0.10154927, -0.00699227, 0.00775074, -0.03343374, -0.09732389, 
	-0.02979836, 0.10713715, -0.05714795, 0.09729055, -0.02931526, -0.01502450, -0.02496910, 0.07479019, 0.09909242, 0.07391647, 
	0.08727568, 0.08585907, -0.00219757, 0.07927408, -0.04892564, -0.10159205, 0.04131759, -0.00326563, -0.01509292, -0.01658938, 
	-0.00549954, -0.06113102, -0.09628095, -0.10920992, -0.06764253, 0.02628098, -0.03788736, 0.10810700, 0.01130511, 0.09271654, 
	-0.06772192, 0.11388528, 0.11983968, -0.00207573, 0.02612013, 0.00261373, 0.16057725, 0.02016514, 0.07801221, -0.03412266, 
	0.10209838, 0.03500282, -0.05747515, 0.02801098, -0.07434735, 0.06335234, -0.05390811, -0.09258950, -0.08246172, -0.10382935, 
	
};

// Layer: conv2_bias | Shape: (16,)
const float conv2_bias[16] = {
	0.08533120, 0.06171839, 0.00466367, 0.10464157, 0.08397352, -0.00923467, 0.03613280, -0.01969022, 0.01036269, -0.08063411, 
	0.09285758, -0.01785966, -0.06509243, 0.07634566, -0.05830657, -0.01782194, 
};

// Layer: fc1_weights | Shape: (120, 400)
const float fc1_weights[120][400] = {
	0.04256526, 0.02651511, 0.04065278, 0.02125386, -0.07267094, -0.06640263, 0.05326339, 0.06595776, -0.02336427, -0.00090885, 
	-0.03699363, 0.03523967, -0.03390276, 0.05843543, -0.04070543, -0.07341266, 0.08388907, 0.01554705, 0.04475162, 0.00197847, 
	0.03744391, -0.03512194, -0.02718803, 0.00361713, -0.01125582, -0.06857494, 0.01000644, -0.03560197, 0.00058674, -0.04727241, 
	0.04245727, 0.03074257, 0.06814688, -0.01308560, -0.03052983, -0.01989586, -0.00458698, -0.01463354, -0.04067422, 0.00988997, 
	-0.02938475, 0.01286163, 0.02930360, -0.01174222, -0.00630958, 0.01521725, 0.02438680, 0.03584676, 0.01154028, 0.01058686, 
	-0.08713320, -0.05729502, -0.00333738, -0.09269520, -0.02473144, -0.01517408, -0.02116944, 0.05010876, -0.05513070, -0.04551389, 
	0.00418146, 0.05459469, 0.06286429, 0.05053936, -0.02127367, -0.01247566, 0.02664879, 0.08144204, 0.02228750, -0.01668309, 
	0.03102101, 0.02139486, -0.03017841, 0.03289576, -0.01855073, -0.03909271, -0.00955614, 0.03781628, -0.00585198, 0.02736889, 
	0.02562253, -0.03266228, -0.07765385, -0.09255131, -0.05705480, 0.00047851, -0.04461285, -0.01743539, -0.03316678, -0.00985191, 
	-0.03044492, 0.01101321, 0.04024548, -0.02386340, -0.04615244, 0.06539829, 0.02969787, 0.02396937, 0.02049404, -0.00315759, 
	0.02361491, -0.00335836, 0.03288328, -0.06205128, -0.02378889, -0.00220889, -0.02622148, 0.07436529, -0.00019016, 0.01103564, 
	-0.01829964, -0.00850833, -0.00329947, -0.02713412, 0.01724333, -0.03554028, -0.05472452, 0.00889508, -0.04624320, 0.08657321, 
	0.07095657, -0.00199949, -0.00040165, -0.08248313, -0.08603539, -0.07566471, -0.05545845, -0.03702679, -0.06126368, 0.06945754, 
	-0.08148383, 0.08064420, 0.05352415, 0.05315347, 0.02234981, 0.05838760, 0.05279592, 0.04566361, 0.02295845, 0.01694048, 
	0.08930279, 0.02185789, 0.07968153, 0.00990735, 0.01513575, -0.02687430, -0.04073027, -0.02645228, 0.01358102, 0.05122178, 
	0.08823086, -0.05990397, 0.05576617, 0.01956408, -0.05420066, -0.02489779, -0.02427775, -0.02015830, -0.05769516, 0.08806869, 
	0.05793092, 0.00503254, 0.08938909, 0.00505309, 0.08209968, 0.12616049, 0.09376117, 0.12585521, 0.09586968, 0.06721350, 
	0.10452160, 0.08383911, 0.02031253, 0.02888355, 0.00378811, 0.02835448, 0.04672533, 0.04928505, 0.04845683, 0.04373163, 
	0.06837593, 0.07460050, 0.08029468, 0.07042987, 0.07828913, -0.00432267, -0.03793557, -0.00846783, 0.04352776, -0.01644760, 
	0.05459943, 0.00282102, 0.01622297, 0.03041339, 0.06856191, 0.03041200, 0.06379531, 0.05026941, 0.03398603, 0.05040303, 
	-0.02668871, 0.02111402, 0.07610951, 0.02267587, -0.02089783, 0.00596469, 0.06952981, -0.01450158, 0.01834772, 0.06559905, 
	-0.00201618, 0.04503885, -0.02654229, -0.01101572, 0.05113383, -0.02519096, -0.03530439, -0.00598761, 0.02126165, -0.02932004, 
	0.00493234, 0.00809355, 0.02557189, 0.03733682, -0.01291322, 0.02046893, -0.00142705, 0.00583101, 0.03606044, -0.03484634, 
	-0.03475666, 0.02014385, 0.02466590, 0.03468939, 0.04601686, -0.01520235, 0.03388822, 0.03403703, -0.04584257, 0.03078315, 
	0.03369663, 0.00806412, 0.01968548, -0.02745339, 0.01014395, 0.04855304, 0.00238501, -0.00009758, 0.04721571, -0.00039611, 
	-0.00890675, 0.00362970, -0.03857761, 0.03314166, 0.04379421, 0.05897985, 0.03495063, 0.06753585, -0.02332225, -0.03220328, 
	0.05112085, 0.02232757, 0.01021504, 0.02652583, 0.06896592, 0.04959716, 0.05127247, -0.02769487, 0.06394448, 0.03068106, 
	-0.00918767, 0.01165924, -0.03894861, -0.03006830, 0.00629044, 0.07604573, 0.08568589, 0.08283197, 0.01113210, -0.00023853, 
	-0.00244433, 0.04766198, 0.02769631, 0.04225926, 0.05467471, 0.00214835, -0.02681706, 0.02425290, -0.02018632, 0.01158440, 
	0.04301608, 0.07050782, 0.02209847, 0.00667075, 0.02781543, 0.01844846, 0.03377195, 0.06808323, -0.00395761, 0.07355559, 
	0.04483344, 0.01988561, 0.03870231, -0.01439617, 0.05428177, 0.02389442, 0.01477341, -0.00125974, 0.07374200, 0.02631019, 
	-0.01644587, -0.02290796, 0.05864850, -0.01186083, -0.00927609, 0.02199557, 0.00309765, 0.01042817, 0.00256996, 0.00145448, 
	0.01740100, 0.04688192, 0.06910601, -0.00251716, 0.03562332, 0.02682014, -0.08688701, -0.09178025, -0.09225485, -0.07131312, 
	0.00887561, -0.01220083, 0.13197027, 0.12667491, 0.10657509, -0.09452476, 0.08058413, 0.05006656, 0.03495581, 0.04854788, 
	-0.02732255, 0.03714887, 0.01448170, -0.00048877, 0.03195470, 0.02134212, -0.07771432, -0.01995082, -0.04217087, -0.02141003, 
	-0.03963263, 0.07136828, 0.02039628, 0.00105874, -0.03306782, 0.00610018, -0.04365690, 0.05715845, 0.01043167, -0.02632099, 
	0.03884681, -0.00996710, 0.02387277, -0.01083552, -0.07969777, 0.01587232, 0.06148963, 0.05672863, 0.01842899, 0.03419105, 
	-0.00277035, 0.01396167, 0.02587309, 0.03420009, 0.00365132, 0.00195678, 0.03084061, 0.11133805, 0.10661222, 0.01255376, 
	0.06791705, 0.04822965, 0.09740078, 0.00190222, -0.01078557, 0.10068171, 0.02881286, 0.04059264, -0.02464522, 0.07622567, 
	0.08784287, -0.01979852, -0.02813763, 0.03889224, 0.03297150, 0.07362177, 0.06479684, 0.07512514, 0.08345734, -0.00760961, 
	0.04137919, -0.03080716, -0.01271479, -0.02719539, 0.01198093, -0.04983832, -0.02279934, 0.04364121, 0.02900956, -0.03874777, 
	0.00995952, -0.03161661, 0.02836704, 0.04285370, -0.00600075, -0.03071287, 0.03008360, -0.02800431, -0.03923402, -0.02076681, 
	0.01619152, 0.01877251, -0.01725471, 0.03690728, -0.01881725, -0.03840747, 0.02677366, -0.02866622, 0.00506409, 0.00920586, 
	0.00359238, -0.01616348, 0.03547780, 0.02602189, 0.00469898, -0.00793315, 0.03277827, -0.04956962, -0.01594210, -0.00647442, 
	-0.00998565, 0.03277812, -0.02084054, 0.01333045, -0.02112208, -0.01259868, -0.01112732, 0.01216806, -0.04814881, 0.00301208, 
	0.04771778, -0.02204292, -0.01093376, -0.03575892, -0.02289971, 0.01844302, 0.02399259, 0.01257506, 0.03617885, 0.02388908, 
	-0.02114576, 0.00540673, -0.00241392, 0.04339000, -0.02173613, -0.03709720, -0.00560258, 0.03865851, 0.02210214, -0.04502663, 
	0.04571715, -0.03266251, 0.01344032, -0.02049751, 0.01014271, -0.03752431, 0.01034590, -0.03918663, -0.01927437, 0.02288371, 
	-0.00718778, 0.04455988, -0.00178571, -0.00953327, 0.01302186, 0.02952810, -0.01646448, 0.04971596, -0.03316566, 0.04968419, 
	-0.04570136, 0.04091034, -0.02320693, -0.03965161, -0.03082681, -0.02131500, 0.00791563, -0.00942434, -0.02164501, 0.03898451, 
	-0.04210684, 0.02023280, 0.03637953, -0.01772885, 0.04372407, -0.02660651, 0.04670704, -0.03297856, -0.04035090, -0.03837560, 
	0.03644319, -0.00265840, -0.04830420, 0.00190675, -0.02686687, -0.04622340, -0.00909211, -0.02403156, -0.00197906, -0.03044556, 
	-0.03747989, 0.04830563, 0.02365360, 0.00211519, 0.03354226, -0.03132695, -0.00956517, -0.01185536, -0.03582101, -0.02981695, 
	-0.04715138, 0.01124334, -0.00649113, -0.04175744, -0.02850553, -0.04036417, 0.03291705, 0.04993035, -0.00037674, 0.00858961, 
	0.02774377, 0.04727849, 0.01844653, -0.02082732, 0.04460931, 0.04109776, 0.03191083, 0.04850334, 0.00457392, -0.02143566, 
	0.01453886, 0.02304978, -0.00967575, -0.04625135, 0.01308703, -0.01180413, -0.01579868, -0.00746350, -0.02570520, 0.03983361, 
	-0.04845238, 0.00295554, -0.01732893, -0.01698620, 0.01026628, 0.03955672, 0.04560276, -0.01815315, -0.01633734, 0.02793670, 
	0.03642263, 0.02029956, 0.03343576, 0.00885678, -0.04300164, -0.03172083, 0.04724674, -0.01066672, 0.03006148, 0.02103175, 
	0.02387294, 0.02948916, -0.02638275, -0.01293684, -0.00203961, -0.04214219, 0.03154928, -0.02282342, -0.02202373, -0.03560191, 
	0.02143970, 0.00054779, 0.04346487, 0.00288344, 0.00936684, -0.04807308, 0.04496873, -0.01566864, -0.04999756, -0.04516857, 
	-0.02969682, 0.00716366, 0.01439652, -0.01283552, -0.03326376, -0.00196034, -0.01371251, -0.04531204, -0.04177836, -0.04924296, 
	-0.04953886, -0.02964238, 0.00437375, 0.03141508, 0.01234589, -0.04012067, 0.01444745, 0.02703914, 0.03320355, 0.01414407, 
	0.04120421, 0.04602892, -0.02147511, -0.00035367, 0.04089795, 0.02343382, -0.02533094, -0.02072714, -0.01000828, 0.00658115, 
	0.00957169, 0.04439047, 0.00862362, 0.00677695, 0.03263324, -0.00360839, -0.04110251, -0.01636789, -0.00828427, 0.00287882, 
	0.02029473, 0.04716032, -0.00401441, -0.01431438, 0.01459350, 0.04456315, -0.04361239, 0.00792998, -0.00356366, 0.04144533, 
	-0.03385319, 0.02092431, -0.02172836, 0.02517873, -0.02762586, -0.00695241, -0.01881065, -0.00264095, 0.00888580, -0.04290055, 
	0.01686854, 0.03149824, -0.03433383, -0.03506510, 0.01057227, 0.01797682, -0.03264978, -0.03105515, -0.02247254, -0.03603790, 
	0.03212984, 0.04945225, -0.01267491, 0.02444084, -0.03645650, -0.01590667, -0.02034515, -0.02533239, -0.04664243, 0.02424126, 
	0.00205180, -0.04365988, 0.02703163, -0.04455978, 0.02811756, -0.00147260, -0.00270224, -0.01224983, -0.01577479, -0.03098362, 
	0.04247659, -0.01569998, -0.04447768, 0.03537718, 0.03146155, -0.03733550, -0.02939972, 0.02050788, -0.02395634, 0.01055563, 
	0.01934941, 0.04457248, 0.01637712, 0.04790201, -0.04260598, 0.00100067, 0.01492764, -0.03198227, 0.01723795, -0.00876398, 
	0.04742438, -0.04161777, -0.00965591, 0.02439767, 0.00699236, 0.03569497, 0.02120231, -0.00465932, -0.03774987, 0.01489376, 
	0.03818962, -0.02441457, -0.04130609, -0.03438292, -0.04876220, 0.00363264, -0.02356803, -0.01077931, 0.03707295, 0.04094360, 
	-0.00536365, -0.04461191, 0.04789149, -0.01879798, -0.01699892, -0.04156687, -0.03523641, -0.00525425, -0.04457393, -0.00230722, 
	0.04063192, -0.03600857, 0.04150990, 0.03498008, -0.00406533, -0.01502403, -0.04561749, -0.03376418, -0.00281527, 0.00662167, 
	-0.03311060, 0.03866943, 0.04043391, -0.04197519, -0.00268171, -0.04930232, -0.00046954, -0.03410368, 0.02418613, 0.03396134, 
	0.02448815, -0.02928596, 0.00552411, 0.02891746, -0.04198092, -0.02295156, -0.01915962, -0.03750650, 0.01139965, 0.04410368, 
	-0.03101140, 0.01196490, 0.01224897, -0.04236595, 0.00852256, -0.01664149, 0.02912438, -0.00358814, -0.04069588, -0.01457701, 
	0.03608150, 0.00803819, 0.00350472, -0.01821255, 0.01089055, -0.00959560, -0.03271525, 0.00313816, -0.04485564, -0.03775533, 
	-0.02291343, -0.02955173, -0.01899477, 0.00319394, -0.02013735, 0.04397116, -0.01120541, 0.02172587, -0.02286720, -0.02076846, 
	-0.05228625, 0.01834892, 0.00466492, 0.00067167, 0.01338238, -0.00022799, -0.00483799, 0.01992185, -0.05116158, 0.02450150, 
	-0.01097687, -0.02415946, 0.03281202, -0.02813857, -0.03071236, -0.00464027, 0.00161503, -0.04130464, -0.00441166, 0.04046689, 
	-0.01722632, -0.00317347, -0.00716699, 0.02834995, -0.05635149, 0.02700914, 0.02253051, 0.00223644, -0.04727301, 0.02463008, 
	-0.02175525, -0.03876742, -0.05553753, 0.00040111, 0.01370717, -0.04698428, -0.01530160, -0.01698850, 0.02501454, 0.02595748, 
	-0.02571223, -0.04735206, 0.01562533, -0.02629408, 0.01496602, -0.03519968, 0.00319738, 0.03885614, -0.03233848, -0.00354248, 
	-0.04715365, -0.00012449, -0.02165412, -0.00051924, -0.04307887, -0.01112679, 0.02960225, -0.01980563, -0.03253956, -0.00477463, 
	-0.05093085, 0.02574345, -0.02631560, -0.04042908, -0.01583977, -0.04182368, -0.04626353, -0.05325824, -0.02209900, 0.02755324, 
	0.01662234, -0.02846246, 0.02885969, 0.01501570, -0.02729048, -0.02285174, 0.00132911, -0.01131779, 0.02984069, -0.00541640, 
	-0.01063807, -0.05423266, -0.05639157, 0.03175091, 0.02847607, -0.03297573, 0.02955107, -0.01227689, 0.03904132, -0.04360778, 
	-0.04452106, -0.03322240, -0.03898704, 0.00394955, 0.01630355, -0.01288555, 0.00219261, -0.04735488, -0.04058829, -0.02978141, 
	-0.02855440, -0.01848702, -0.00206941, -0.03663165, 0.01640226, -0.01598059, 0.01452826, -0.03012751, 0.01224684, -0.04681276, 
	0.01180079, -0.05143495, 0.02695816, -0.01867734, -0.04702190, -0.00937645, 0.01190451, -0.02625186, -0.01219493, 0.00015305, 
	-0.00502325, -0.01930618, -0.05280296, -0.01809892, -0.04692951, 0.01406355, -0.01891687, 0.01426120, -0.05366996, -0.05417515, 
	-0.00189290, -0.02405648, 0.03154972, -0.01391167, 0.02074401, -0.05541740, -0.02202845, -0.01369816, 0.03226700, -0.02094031, 
	0.02558412, 0.03235595, 0.01837366, 0.03282410, -0.03272939, 0.03309674, -0.00968183, 0.02067639, -0.04409517, -0.05532287, 
	0.01550011, 0.00617053, -0.01396244, -0.01972479, -0.05068749, -0.03717403, -0.03577527, 0.00876033, 0.00850732, 0.00810692, 
	0.00058887, -0.01278276, -0.00030269, -0.00374916, -0.02481305, 0.04179576, -0.05715663, 0.02747395, -0.05653106, -0.05407888, 
	0.03677857, 0.02580408, 0.04130002, -0.00287246, 0.02175540, -0.05276595, -0.04607788, 0.03558389, -0.03575771, 0.02958134, 
	-0.04108229, -0.05030324, -0.04940354, -0.04020755, -0.02126826, -0.00406702, 0.00128280, 0.04220797, -0.00693885, 0.01836223, 
	-0.04998023, 0.00794431, -0.02058990, -0.04345094, -0.01991045, -0.00183802, -0.00176589, -0.04088174, -0.00255680, -0.05313358, 
	0.01789569, 0.04118931, 0.03791998, -0.03385775, 0.02712169, -0.02302691, -0.05098657, 0.02231584, -0.01422527, -0.02199641, 
	-0.01277805, 0.01797084, 0.00271373, 0.01143901, 0.01338122, 0.03627202, -0.00826493, -0.02514477, -0.02135185, -0.02844313, 
	-0.00722768, -0.00266859, 0.00918662, 0.03836017, 0.00904464, 0.02159271, 0.04725395, 0.04325249, 0.01830858, -0.03827294, 
	-0.04972128, -0.04350353, -0.03241121, -0.00607507, 0.01903331, 0.03091005, 0.00083867, 0.00409647, -0.00686876, -0.04562669, 
	-0.03809010, 0.01426115, 0.01029279, -0.01382409, -0.02411741, 0.01823205, -0.02545566, 0.04437682, 0.00464447, -0.04533384, 
	-0.00108349, -0.01698309, -0.02449808, -0.04209648, 0.04380949, -0.00971784, -0.04625981, 0.00712913, -0.03842946, -0.01823625, 
	0.03336550, 0.01664289, -0.02954079, -0.03697670, 0.02545286, -0.03221902, 0.01799209, 0.04215805, -0.01917272, -0.04192079, 
	-0.02733694, 0.03906122, -0.02426687, 0.00764424, -0.02828460, -0.05691570, 0.01496296, -0.02717595, -0.04251453, -0.01237877, 
	0.03216175, -0.05254607, -0.04818154, -0.01543346, -0.00322016, -0.00831035, -0.02685727, -0.03777279, 0.01245133, -0.01053936, 
	-0.04699206, 0.02243500, -0.05339070, -0.01995654, 0.03673725, -0.04125553, 0.01114941, -0.05144953, -0.01177913, -0.05701404, 
	-0.03665822, 0.00063730, 0.01777763, -0.04614386, 0.03883852, 0.02419316, -0.02837031, 0.01026008, 0.01211806, -0.02960391, 
	-0.00403503, -0.02950801, -0.02528068, -0.04425380, 0.03376489, 0.01847128, -0.03511513, -0.01216651, 0.03038882, 0.01412259, 
	0.04223262, -0.03874959, -0.01294352, -0.00564435, 0.03411218, 0.00106877, 0.03503606, -0.00114842, 0.00357839, -0.01739261, 
	-0.00539744, 0.01717031, -0.00797488, -0.04619271, 0.02286706, 0.01516307, 0.00471655, -0.05209830, 0.01956468, -0.00033145, 
	0.02823213, 0.03969515, 0.01267269, 0.02382937, -0.05267986, 0.01271097, -0.04282971, -0.04486266, 0.04258069, 0.01843088, 
	0.04027411, -0.05426445, -0.00716310, -0.04745154, 0.00523468, 0.03222196, 0.00602835, -0.01953296, 0.00667337, 0.02455560, 
	-0.03575501, -0.04220382, 0.01777146, -0.03207024, 0.02269692, -0.04297122, 0.03302551, 0.01242933, -0.01234384, -0.04566836, 
	-0.05731459, -0.00666988, 0.00989007, 0.00712808, 0.04105059, -0.01398978, -0.03785905, -0.03441784, -0.04097554, -0.02159951, 
	-0.04944212, -0.05266025, 0.00084180, -0.04251559, -0.00948335, -0.00537673, 0.00486100, -0.00216957, -0.05687258, -0.00868826, 
	-0.01385776, -0.03499945, 0.00504492, 0.02515103, -0.03993759, 0.02604658, -0.04598546, -0.04047376, -0.00641798, -0.00092022, 
	0.01563530, -0.04085650, 0.00524666, 0.03991355, 0.00165131, 0.04248700, -0.02339283, 0.02267829, -0.03007954, 0.00438274, 
	0.02131789, 0.03907577, 0.03491423, 0.02721903, -0.02664264, -0.00198687, -0.03579015, 0.02062755, -0.03529216, 0.01469034, 
	0.04759269, 0.02037146, 0.02026927, -0.04378670, -0.04630257, 0.03819687, -0.01905700, 0.00886611, 0.00423252, -0.01885163, 
	0.01069686, -0.03920444, 0.01151951, 0.04606598, -0.04427433, -0.02883891, -0.03908133, 0.04881399, 0.01097317, -0.02250426, 
	0.04880801, -0.03049486, -0.01989219, -0.02720872, -0.01548628, 0.04487837, -0.03572709, 0.04078538, -0.02447493, 0.03908147, 
	0.04848206, -0.04873960, 0.00605258, -0.03938823, -0.01409899, -0.02438074, -0.02839713, 0.04029050, 0.01172156, -0.01086497, 
	0.01104433, 0.00546055, -0.01192750, -0.02623564, 0.01091025, -0.02000014, 0.03145611, 0.02426536, 0.01799170, -0.00319846, 
	-0.01845198, 0.04477636, -0.04344910, 0.01008602, 0.02386544, 0.00303656, 0.02101481, 0.04483583, -0.00558678, 0.00921106, 
	-0.03296893, 0.04324771, -0.02555072, -0.00742596, 0.03881068, -0.02317398, -0.00662038, -0.02406256, 0.01336275, -0.04698304, 
	-0.01254953, 0.03235510, 0.00007438, 0.01632603, 0.01152515, 0.01500552, -0.03987622, -0.02833918, 0.04158643, -0.00750216, 
	-0.02936496, -0.03198555, -0.02775934, 0.01405659, -0.00637129, -0.01646881, -0.01065295, -0.04796312, -0.02920741, 0.01669081, 
	-0.00710008, 0.02688477, 0.03299128, 0.03243556, 0.00163024, 0.01942873, -0.03421797, -0.02131984, -0.02534903, -0.01666423, 
	-0.00358526, 0.03268388, -0.04977961, 0.02750964, 0.01477363, 0.00644265, -0.02431269, -0.01397576, 0.03821076, -0.01853104, 
	0.01544002, -0.01094650, -0.03514290, 0.00066627, -0.03572851, -0.00662092, 0.00364348, -0.01265761, -0.03944787, -0.03627810, 
	0.02986397, 0.02850879, 0.04700235, 0.01255910, -0.04478699, -0.01410296, 0.02214361, 0.03766506, 0.00207016, -0.01687523, 
	-0.00409732, -0.00936886, -0.03988708, -0.00307921, 0.01932229, 0.03339935, 0.02513084, -0.03203276, -0.04341465, -0.02889406, 
	0.02750805, 0.04503519, 0.04404796, 0.01922150, -0.04365250, -0.04929265, 0.02346104, 0.00702958, 0.03040315, -0.04226815, 
	-0.02172868, -0.02300869, -0.01229854, 0.03916443, 0.02429041, -0.02736846, -0.04360661, -0.04848869, -0.03184799, 0.00373799, 
	-0.03917915, -0.00635742, -0.04492732, 0.03551741, 0.00160614, -0.01278577, 0.02423972, 0.04545322, -0.02993782, -0.03852717, 
	-0.04827802, 0.00846138, -0.00553641, 0.01050474, -0.02896823, -0.00461049, -0.04889308, 0.03439314, -0.04115938, 0.02495733, 
	0.04730546, 0.03773088, -0.00038197, -0.04753624, -0.02005584, -0.00509350, 0.04422041, 0.03171131, 0.01524748, 0.03754416, 
	-0.04092372, 0.00574904, -0.04924583, 0.02322757, 0.02721059, -0.03198146, 0.02237542, -0.03546634, -0.01017921, -0.03766372, 
	-0.00935792, 0.01405266, 0.04413844, 0.03420943, -0.00839739, -0.01145316, -0.02672603, 0.04996641, -0.02998508, -0.03183760, 
	-0.02739371, -0.03119605, 0.03656444, 0.03090241, -0.00327763, -0.02025004, 0.02642620, 0.01376655, -0.00980850, -0.00964294, 
	0.02728984, -0.00023393, 0.02638855, -0.04710383, 0.00205849, 0.03653927, 0.04595355, 0.04157483, 0.03024251, 0.04259602, 
	0.02388137, -0.02454542, -0.04459864, -0.02253933, -0.01602226, -0.00314358, -0.02111149, -0.01405752, 0.03506348, 0.02401294, 
	-0.01777823, -0.03363676, -0.01857000, 0.01854197, 0.01366410, 0.00706148, 0.03228986, -0.02533953, -0.04555842, 0.04385659, 
	0.04128594, -0.03112357, -0.03712747, 0.02873468, 0.03170798, 0.03720740, -0.01964701, 0.01892898, 0.00691579, -0.01452479, 
	-0.03956010, -0.04745444, 0.03745905, -0.03860760, 0.03969056, -0.01409257, -0.01885810, -0.01574015, 0.01505275, 0.00000287, 
	-0.03248360, 0.02005521, -0.04978037, 0.03669083, 0.00376007, 0.00668135, 0.04738806, 0.03209187, 0.04834000, 0.04419154, 
	-0.00569094, 0.04658963, -0.02888218, -0.03444536, 0.00510253, 0.01789680, -0.03687865, -0.04835872, -0.02415099, -0.00683194, 
	0.02183336, -0.04837842, -0.02667454, 0.04158017, 0.01464033, 0.03564268, -0.04250106, -0.01841586, 0.03479773, -0.03860696, 
	-0.00292434, 0.01006646, -0.03436987, -0.01808662, -0.03815531, 0.01831884, -0.04788861, -0.01623524, -0.03942538, 0.03601889, 
	0.00107341, -0.00525353, -0.00725847, -0.02431549, -0.01472691, 0.03077764, 0.03914081, 0.04732783, -0.01161294, -0.02175196, 
	0.03783300, -0.00345071, -0.00195495, 0.04837709, 0.00718121, 0.04853961, 0.04084659, -0.04345760, 0.01901365, 0.02834940, 
	0.04100922, -0.02276043, -0.03799357, 0.00663127, -0.01762205, 0.03342528, -0.00577559, -0.01410528, 0.03597218, -0.04613223, 
	-0.00019602, 0.04929716, 0.03166774, -0.00142233, -0.01164349, 0.01339269, 0.04297678, 0.00530813, -0.01352315, 0.01381012, 
	-0.02712979, 0.00512167, 0.00594515, -0.03484883, -0.01867118, -0.00638205, 0.04165571, -0.00226893, 0.04626489, -0.00425333, 
	0.03462696, -0.00012174, -0.01432902, -0.04232895, -0.01820460, 0.04461422, -0.00936306, 0.04770008, -0.04867016, -0.02050814, 
	0.01112963, -0.00208722, 0.01326430, -0.01490957, -0.03686618, 0.01129899, 0.04250429, -0.01968258, 0.01313147, -0.03919016, 
	-0.04671372, 0.01365409, 0.04113091, 0.07986444, 0.02661209, 0.08228349, -0.00732598, 0.03910969, 0.06426834, 0.05104950, 
	0.07110041, 0.06849782, -0.00508687, -0.02516625, -0.01623512, 0.05571502, 0.05211081, 0.00250276, 0.01879083, -0.01418327, 
	0.04191238, -0.02483626, 0.06490207, 0.05768092, 0.04786112, 0.02874118, 0.05706627, 0.07443862, 0.07765344, 0.04780803, 
	0.00636865, 0.00056483, 0.01498751, 0.07640477, -0.00930422, 0.01589355, 0.07710889, 0.08416941, 0.06879624, -0.00038134, 
	0.01815566, 0.04057843, 0.02054565, 0.06716669, 0.03697206, 0.03930200, 0.00498965, 0.03721517, 0.02610439, 0.03958877, 
	0.00617419, 0.04150541, 0.07466050, -0.00236637, 0.00256812, -0.02343657, 0.04010374, -0.04103395, -0.00885583, 0.04917561, 
	-0.01354171, 0.01557079, 0.03572113, 0.05137099, -0.03107525, 0.00291398, 0.08511487, -0.02161379, -0.00821043, -0.01715694, 
	-0.01592203, -0.02014158, 0.02108224, 0.02914382, -0.04167493, -0.01623766, -0.01741833, 0.06244532, 0.05709882, 0.06082908, 
	0.07038441, 0.03095144, 0.02299512, 0.05590417, 0.04215024, 0.05640840, 0.07484342, -0.00258221, 0.00853924, -0.00472535, 
	0.00002599, 0.07122976, 0.06104829, 0.02441930, 0.06335481, -0.02075774, 0.07119403, 0.06863639, -0.00272481, 0.01946082, 
	-0.06156446, 0.06374015, 0.00530180, 0.03693588, 0.04828433, 0.00243709, 0.07292973, 0.01823138, 0.07627804, 0.06017855, 
	-0.00691936, 0.07748396, -0.01377456, 0.03701097, 0.09644082, 0.04168699, 0.08008230, 0.01215570, 0.00190530, 0.03104574, 
	-0.02833470, 0.01318770, 0.03445071, 0.04478094, 0.05370786, 0.08836145, 0.10080966, 0.07388707, 0.04340795, -0.10182425, 
	0.05777646, -0.07347099, -0.03411277, 0.00991553, -0.03176187, -0.01644304, 0.03657273, -0.04427299, 0.01214086, 0.04089137, 
	0.01667806, 0.03026213, 0.00273418, -0.01306737, 0.03521115, -0.01672292, -0.02559694, 0.05095229, -0.02155812, -0.00382284, 
	-0.07765310, 0.01836957, -0.02560680, -0.04103381, 0.08500420, -0.02332409, 0.00831277, -0.01762678, -0.00121036, -0.09969193, 
	-0.09099167, 0.00068566, 0.02809921, -0.02300842, -0.05336805, -0.03990971, -0.01919477, -0.06203880, -0.02555519, -0.02524362, 
	-0.05135620, -0.04509011, -0.01691865, 0.04065946, 0.04805049, 0.04735600, 0.06226715, 0.02310294, 0.03352972, 0.03884632, 
	0.04593426, -0.01248435, 0.02160942, -0.02472632, 0.02065369, -0.00157208, -0.01724581, 0.05696463, 0.03249856, 0.02251345, 
	-0.00800897, 0.05764078, 0.05200158, -0.00464437, 0.01329674, 0.02558775, -0.05458324, -0.04986541, -0.01512340, -0.04986143, 
	-0.01363112, 0.04228358, 0.00163995, -0.00015570, -0.00038474, 0.03596030, -0.05969876, 0.01086284, -0.03221043, -0.00689387, 
	0.05866403, 0.01537644, 0.01126754, 0.05939915, -0.03725491, 0.04548946, -0.03849100, 0.00547627, 0.04536308, -0.00817454, 
	-0.01692118, 0.00152829, -0.02923940, -0.02305740, -0.00711485, -0.04378843, -0.04521279, 0.03302648, 0.04442988, -0.02384713, 
	0.02161101, 0.04905139, -0.04314918, 0.04330954, -0.00358140, -0.03928758, 0.03331256, 0.00142214, -0.00590133, 0.01030795, 
	-0.02079622, 0.03546682, -0.01021135, 0.04300138, 0.04260400, -0.02619646, 0.01499981, -0.04037837, -0.02678925, -0.00001235, 
	0.05878453, 0.05987566, 0.06381025, 0.03167741, 0.04948996, -0.04997045, -0.02705110, 0.01714837, 0.05847270, 0.03608939, 
	-0.01977671, -0.00335136, 0.05741217, -0.01074938, -0.00207273, -0.02363365, 0.02049808, 0.05840163, 0.02536538, 0.04600773, 
	-0.04146972, -0.00241002, 0.00970728, -0.02988935, -0.02709431, 0.01597085, -0.01370877, -0.05786772, -0.03599814, -0.00617651, 
	0.02438699, -0.04268244, -0.05013667, 0.02375529, -0.03377510, 0.04379398, -0.00650266, -0.00998026, 0.00039249, 0.01583985, 
	-0.00190548, -0.05601157, 0.02061878, 0.03592813, -0.05402725, -0.00058412, 0.00573632, -0.00656632, -0.01766073, -0.03282256, 
	0.03221895, 0.04045672, -0.04998240, -0.03488819, 0.02427115, -0.03736238, 0.04604026, 0.00681645, 0.01015844, -0.03077178, 
	0.04556808, -0.00480328, -0.02933242, 0.03992920, -0.02160426, 0.03663043, -0.00001922, -0.02325116, -0.02551251, -0.03357173, 
	0.01785626, -0.03123670, 0.01181606, -0.03565180, -0.02148331, 0.03764206, 0.02352575, 0.04724048, 0.05985112, 0.02353006, 
	-0.00904573, -0.04077016, -0.09285798, -0.09166918, -0.03129382, 0.02990919, 0.06327254, -0.05346599, 0.00661645, 0.03066427, 
	0.01647972, 0.07048266, 0.03461284, 0.03899491, 0.02033729, -0.02909257, 0.00581161, 0.03837785, 0.08200030, -0.04778267, 
	0.02519182, -0.01860379, -0.06227580, -0.06298411, -0.01476172, -0.01463425, -0.01119358, -0.04603727, -0.02563940, -0.03092325, 
	-0.01438760, -0.00781373, 0.01233312, 0.01670300, 0.01939815, 0.04199209, 0.06339216, 0.00840510, 0.05179223, -0.01184247, 
	-0.00812687, 0.00989388, -0.02608903, 0.03859540, 0.07381091, -0.00432365, -0.05374084, -0.08569163, -0.00870919, -0.11551904, 
	-0.02326146, -0.04407145, 0.02673463, 0.07246980, 0.00386814, -0.00424739, 0.05806055, 0.02162307, 0.02070737, -0.03553055, 
	-0.01253429, 0.03075863, 0.08190648, 0.06459203, 0.02348986, -0.09945428, -0.05457767, 0.02134279, -0.00072709, -0.03594080, 
	-0.05818366, 0.01742475, 0.00953971, 0.01378909, 0.00967180, 0.03667974, -0.03613714, -0.01499659, -0.02826972, 0.01787420, 
	-0.01169578, 0.03959026, -0.01314203, 0.00311182, 0.01436662, -0.05873159, -0.02897763, -0.01012779, -0.03334211, 0.00262584, 
	0.01954045, 0.03591769, -0.04513839, 0.03396579, -0.03787178, 0.01288064, 0.03147192, 0.02084832, -0.03108529, 0.02427789, 
	0.01968381, 0.04014530, 0.00111612, -0.03058956, 0.00199034, 0.03018327, -0.00401530, -0.02677189, -0.05009511, -0.03165589, 
	-0.02778545, -0.00224544, -0.00350109, 0.03110423, 0.03259787, 0.00535489, -0.02080730, -0.04086482, -0.01463105, 0.01282342, 
	0.02640436, -0.00835077, 0.01530579, -0.04920541, 0.00315735, 0.01387140, -0.01870725, -0.05487001, 0.01248908, -0.03089951, 
	0.00395259, 0.00539664, -0.01988024, 0.00576462, 0.02992800, -0.04329788, -0.04995193, 0.02739515, 0.03836243, -0.01918316, 
	-0.04933370, -0.00551489, -0.02337427, -0.05877718, -0.00907218, -0.05159326, 0.02875330, -0.04182408, 0.00925136, -0.01099671, 
	-0.03985045, -0.02969699, 0.03324058, 0.03255796, 0.02724943, 0.00975639, 0.02091707, -0.05550639, 0.01359875, 0.02909566, 
	0.00586669, -0.00308619, 0.00174200, 0.02156723, -0.02160529, -0.00643252, 0.01316610, 0.03945673, -0.04849547, 0.02428374, 
	-0.03610649, -0.01646784, 0.03788269, -0.02423473, 0.03641204, 0.03055895, 0.02819112, 0.03768838, 0.00258785, -0.03398862, 
	0.00375815, -0.01475424, -0.05600050, -0.03954893, 0.02521598, -0.01934594, -0.05252396, -0.03266712, -0.01592594, 0.01072138, 
	-0.00055401, -0.01736452, -0.00136041, 0.02081792, -0.04978516, 0.03408192, -0.04403131, -0.04310293, -0.04028359, 0.01329814, 
	0.01006864, -0.04340691, -0.00893379, -0.02775100, -0.04847196, 0.01171142, -0.01634493, -0.01098029, -0.01425568, -0.00834140, 
	-0.04081896, 0.04118894, -0.00885395, 0.02147819, 0.03193745, -0.02763436, 0.00881641, -0.00459995, -0.03344795, 0.00695624, 
	-0.02055957, 0.04069568, -0.04652064, -0.02295879, -0.05869270, 0.00446589, -0.01492202, -0.00705703, -0.00652483, 0.03223416, 
	-0.05880718, -0.05665577, -0.02450132, 0.00130625, -0.03698513, 0.00809836, 0.01830143, 0.04418171, 0.04644715, 0.02148783, 
	0.03826804, 0.02049813, 0.01213415, 0.02407544, -0.00388965, 0.01082066, 0.00266895, 0.00748035, -0.02040414, 0.00715425, 
	0.01240787, -0.01562142, 0.02577064, 0.01565081, -0.03104719, 0.02021721, -0.01144774, 0.00336234, -0.01576066, 0.01160000, 
	0.00108253, 0.02863522, -0.05477594, -0.04433622, -0.03859840, 0.00481069, 0.03796036, -0.03286788, -0.04722109, 0.01179204, 
	0.01157325, 0.00869533, 0.02896078, 0.00790451, 0.02296869, -0.02904141, -0.04085772, -0.01516672, -0.00476043, -0.04695780, 
	-0.01283102, -0.03350370, 0.03472891, 0.00855718, 0.00767286, 0.01714095, -0.01560620, 0.01992251, 0.01237122, -0.01048127, 
	0.03357579, 0.01537697, -0.04216789, -0.01702415, -0.01446085, -0.03272491, -0.01529880, 0.00951644, -0.00396167, 0.02243826, 
	0.04138402, 0.00172694, -0.02761236, 0.03011196, 0.02712274, -0.00861046, 0.04042516, 0.00944071, 0.01910345, 0.04414431, 
	-0.04200207, 0.00010857, -0.02436515, 0.04151077, -0.00073529, -0.03332140, 0.02914253, -0.03099402, 0.01785743, -0.02540547, 
	-0.02758898, -0.05531968, -0.05354420, 0.02473527, 0.03752352, -0.00205462, -0.00950002, -0.02679614, 0.03038751, 0.03875338, 
	-0.03058528, -0.00882700, -0.04108997, 0.01355265, -0.01383807, -0.00152250, -0.04795121, 0.02328744, 0.00535628, -0.03117294, 
	-0.04432184, 0.03536535, -0.05754545, 0.00449155, 0.02924945, -0.05212043, 0.03568385, 0.02734527, 0.01612295, -0.02536361, 
	0.01867977, -0.00166933, -0.01705829, 0.01413900, 0.00423310, -0.00033154, -0.04609312, 0.02007156, -0.02622997, -0.02218954, 
	-0.00499508, -0.02755465, 0.03088887, 0.02145613, 0.02526292, -0.03397115, -0.01199029, -0.04211872, -0.00744261, 0.02834437, 
	-0.04669598, 0.03860750, 0.01407797, 0.00270482, 0.01759709, 0.00071659, 0.02873472, -0.01329746, 0.00318590, 0.00401489, 
	0.03360762, -0.04889855, -0.02044018, 0.02580348, 0.01703861, 0.00446619, -0.03017080, -0.03608108, -0.05573517, -0.01990277, 
	0.01552461, -0.00035112, 0.03140647, 0.01196719, -0.00930172, -0.05207159, -0.02107284, -0.02577559, 0.01356510, 0.04077346, 
	0.03478796, 0.02087985, -0.03696699, -0.01980349, -0.02246240, -0.01806950, 0.01964627, 0.00877958, 0.00413985, 0.04831120, 
	-0.04194360, 0.03304471, 0.01455201, 0.00710875, 0.03342607, -0.04205517, 0.00477090, -0.01028098, -0.04108580, -0.03303012, 
	-0.05666003, 0.04271946, -0.01832790, -0.01716055, 0.03237871, 0.02570339, 0.02343806, -0.02845483, 0.02106171, -0.03181164, 
	-0.05395887, -0.04915919, -0.02320693, -0.01713907, 0.01041409, -0.05011701, -0.01304721, -0.05177605, -0.02504827, -0.01703902, 
	0.02517970, 0.01974190, 0.04404038, -0.04479217, -0.03979693, 0.01171277, -0.03491794, 0.04106752, 0.01183787, -0.02663110, 
	-0.01565836, 0.01775002, 0.02485716, -0.04066197, -0.00108840, -0.03794646, -0.05145755, -0.05269746, 0.02173692, 0.03878004, 
	-0.02598972, 0.02758070, -0.00445249, 0.02956054, -0.01734364, 0.00207875, 0.04380421, 0.02362861, -0.03673016, 0.01514524, 
	-0.03864092, -0.01250924, -0.02408901, -0.00803004, -0.01244723, 0.03704030, -0.02910173, -0.01116008, -0.04615532, -0.03003381, 
	-0.00426615, -0.00726205, -0.00893135, 0.02870233, -0.04792006, 0.01184857, -0.02409134, -0.00510463, -0.05355460, -0.00620115, 
	0.02723999, 0.03446243, 0.02375054, -0.02135214, -0.00537228, -0.00652442, -0.02469444, -0.00013707, -0.02767664, -0.03072703, 
	0.03771212, 0.00109677, -0.00932024, 0.03216747, -0.05302099, 0.01850353, -0.01705571, -0.04860553, 0.00227563, 0.03692797, 
	-0.03345351, 0.02057095, -0.00269652, -0.00455178, -0.01419888, 0.01332925, 0.01730911, -0.04307031, -0.01590318, 0.02696113, 
	-0.04029161, -0.00478725, -0.04759985, 0.01586610, -0.02002732, -0.01428944, 0.04116347, 0.03438268, 0.00345098, -0.01983362, 
	-0.00828697, 0.02851155, 0.00630261, -0.02984998, 0.02189656, -0.00215906, -0.04004222, -0.04106620, -0.04027604, 0.03099250, 
	0.03210367, -0.01403770, 0.03190711, -0.03986213, 0.03195542, -0.02606685, 0.03491703, -0.00489352, 0.04004359, 0.02656743, 
	0.01905127, 0.04369602, 0.02290507, 0.00919994, 0.00946918, -0.02119028, -0.03546045, 0.01435382, 0.01218246, 0.03845866, 
	-0.03792436, -0.01854423, -0.04973392, 0.01438205, 0.01771487, -0.03697239, -0.03817771, -0.02618518, -0.02971099, 0.04357411, 
	0.02703761, 0.03053948, -0.01508260, -0.02150537, 0.01856860, -0.00468732, -0.02881059, -0.05207631, 0.03301998, 0.01936607, 
	-0.01017184, -0.04555956, 0.02693373, -0.00491056, 0.01558927, 0.00385057, 0.01206714, 0.02860551, 0.01398269, -0.00608548, 
	-0.00198197, -0.00490342, -0.02237526, -0.02572965, 0.03394429, -0.01476994, -0.03006124, 0.00829272, -0.04880382, 0.00781414, 
	-0.02340571, -0.02327462, 0.03968144, -0.03443249, -0.01847466, 0.01668381, -0.00062431, -0.02839667, 0.03886622, -0.01416374, 
	-0.03906696, -0.05119729, -0.04330004, -0.02236625, -0.03495899, 0.03963027, 0.01030772, -0.05588591, -0.05598372, 0.01380756, 
	-0.04579649, -0.03058716, 0.02048287, -0.04793867, -0.04535273, -0.05531832, 0.03443303, -0.01531060, -0.02935016, -0.04924669, 
	-0.03187427, -0.05485680, -0.03110602, -0.01038035, 0.03112626, -0.05048232, -0.03444837, -0.00294745, 0.01662463, 0.04369940, 
	-0.02689922, -0.03896450, 0.00496290, -0.05529065, -0.04246579, 0.01197289, 0.00190955, 0.02408905, -0.04211501, -0.04405087, 
	-0.00604061, -0.04317284, 0.01327921, 0.02695273, 0.00949922, -0.03604955, 0.02367777, 0.03184128, 0.00252079, -0.00625345, 
	0.00882676, 0.03044303, 0.01129565, -0.01617537, 0.00120659, -0.00355951, 0.00588225, 0.04707444, -0.04811629, -0.04505266, 
	0.00506970, 0.03908536, -0.03275982, 0.04868980, -0.01736153, 0.00891976, 0.02327653, -0.00961384, 0.04776474, 0.01963411, 
	-0.03592405, 0.01248940, 0.03465203, -0.03974859, -0.01576043, -0.00866060, -0.00169924, -0.04110712, 0.00267683, -0.04668440, 
	-0.02834818, 0.00680050, -0.03981312, -0.02198183, -0.02627776, 0.00535726, -0.02790358, -0.00789674, -0.02114694, 0.00294597, 
	-0.02389816, -0.03354341, 0.03412868, -0.00028273, 0.04630688, 0.02909983, 0.04546866, -0.01579925, -0.01094485, 0.04236579, 
	-0.04240565, -0.02800373, 0.01778481, -0.02217745, 0.02747509, 0.02901896, -0.04596302, 0.03134928, 0.02753624, 0.00702571, 
	0.04155041, 0.03915188, 0.03026239, -0.00159959, -0.03843182, 0.00169243, -0.04460135, -0.04328942, -0.04407167, -0.02575072, 
	0.03682665, -0.01600407, 0.02137834, 0.02843431, -0.02520772, 0.01445061, -0.03609594, 0.01240620, 0.03541498, -0.05414269, 
	-0.05198627, -0.02293717, 0.02545615, -0.03627908, 0.03157216, 0.02731515, 0.03147461, -0.03391099, -0.01086627, 0.04495397, 
	-0.02277290, 0.00461028, 0.01081229, -0.01701709, -0.01473917, -0.01490966, 0.04140548, 0.01404600, -0.02030640, -0.03894028, 
	-0.00292006, 0.02631468, 0.02274897, 0.01245934, -0.03628856, -0.03212206, -0.04334607, 0.05485555, -0.02424285, 0.03400166, 
	0.01223157, 0.04586329, -0.02425646, -0.04001288, 0.01486437, 0.02731096, 0.04754284, -0.00735993, -0.02492623, 0.00221436, 
	-0.04865302, -0.02231256, 0.00206834, -0.04534652, -0.02754519, 0.01403324, 0.03061639, -0.00327524, 0.01510119, -0.02120386, 
	0.04105819, -0.00970161, 0.03161167, 0.01384193, 0.00701530, 0.01208394, -0.02202637, -0.00650375, 0.02552772, 0.03563757, 
	0.04082029, -0.01604476, -0.00165780, 0.00888443, 0.05285132, 0.03481603, -0.04971430, 0.00655603, 0.01499288, -0.01729689, 
	0.01310097, -0.03279425, 0.02572941, 0.03428974, -0.00301215, -0.04619837, 0.00366545, 0.02533175, -0.01735399, 0.02548333, 
	0.03097351, -0.02928638, -0.02385735, -0.05027659, 0.04414266, -0.01740080, -0.01059386, 0.02525281, 0.01058904, 0.01306378, 
	0.01937940, 0.00154823, -0.04529263, 0.00091488, -0.01237416, -0.02918054, 0.03323959, 0.00570408, 0.03151482, -0.03369481, 
	-0.00083345, -0.00166657, 0.01255576, 0.00324116, -0.01811270, 0.04104633, 0.05356887, -0.03720951, 0.02211263, 0.02741261, 
	0.01317666, -0.00751139, 0.01855163, 0.03733053, 0.00541684, 0.02292482, -0.03099051, -0.03582850, 0.02580680, -0.03307355, 
	0.02912944, -0.05286844, -0.00792160, -0.03451710, -0.03415795, 0.02883816, 0.01626363, -0.00710269, -0.00418006, 0.00223699, 
	0.02342429, 0.03971949, 0.01609047, 0.03702914, 0.01151160, 0.03929285, -0.01422372, -0.00164611, 0.00973407, -0.00851909, 
	0.00033208, -0.02041416, 0.01105548, -0.03319788, -0.02872299, 0.02823293, 0.02922731, -0.02749895, 0.01968991, -0.02827165, 
	-0.00497636, -0.05068683, 0.03535992, 0.00188114, -0.04373334, -0.04969250, -0.03826207, 0.02888659, 0.02493006, -0.04459276, 
	-0.00886054, -0.04859812, 0.01474582, 0.01179154, -0.04907238, 0.04417334, -0.04926084, 0.01991228, -0.00489978, -0.05129920, 
	-0.03093259, 0.02720976, 0.04508482, -0.02636727, 0.03236786, 0.02823918, -0.03592167, -0.04947710, -0.01733464, -0.04522103, 
	-0.03865473, 0.04178962, -0.04233879, 0.03256543, 0.00321029, -0.00825643, -0.00520254, 0.00020003, 0.02415356, 0.00541715, 
	0.03069115, -0.02405690, -0.00646173, -0.01819660, 0.03714057, 0.00393881, 0.02676655, -0.04227502, -0.03777467, -0.03670284, 
	-0.03991064, -0.02896094, 0.01017366, 0.00126660, -0.01565500, 0.03577763, 0.02910614, -0.03116481, 0.02452938, 0.01055680, 
	-0.02967142, 0.02193965, 0.04326800, -0.03275700, 0.03663485, -0.01603289, -0.00531552, 0.02527823, -0.00103817, -0.02936797, 
	0.00303050, -0.01495078, 0.02887356, 0.00794177, -0.00990458, 0.03935514, 0.00480031, 0.03308341, -0.04453098, 0.03330708, 
	-0.00605027, -0.02082236, 0.02731322, 0.02912878, -0.00841505, 0.02622035, 0.02049688, -0.04758539, -0.04094118, 0.00190946, 
	0.01723602, 0.01428362, 0.00647258, -0.01729522, 0.02827385, -0.02493524, 0.03310389, -0.03815882, 0.01825394, 0.01860316, 
	0.03032051, -0.02123062, 0.04490347, 0.04340440, -0.01753875, 0.00272820, -0.01478922, -0.05110115, 0.00582423, 0.01774309, 
	-0.04299295, -0.00423637, 0.02851082, -0.03810215, -0.00689357, -0.04471764, 0.00195859, -0.03367251, 0.01848433, 0.00956893, 
	-0.01664102, -0.00387780, 0.01309820, -0.00174732, 0.04192396, -0.01556923, -0.05192506, 0.02971155, -0.03292132, -0.03217630, 
	0.03759959, -0.00300435, -0.03544726, 0.04449070, -0.03790774, -0.03773645, -0.01323032, 0.03849600, -0.01797827, -0.00818511, 
	0.03445081, -0.02375604, -0.04490680, -0.04158261, -0.02943494, -0.04302030, -0.02857976, -0.01774548, -0.04735645, 0.02584545, 
	-0.02727980, -0.01800403, 0.04284515, 0.00279292, -0.03616111, -0.03752521, -0.02899341, 0.00379318, 0.02780212, -0.02295655, 
	-0.00128317, 0.04362455, -0.01573584, -0.01447407, 0.00541486, -0.01097272, 0.00128024, -0.03253835, -0.02001664, 0.02801980, 
	-0.00506597, 0.00299657, 0.03088921, 0.01267133, 0.03114469, -0.03669209, 0.00129764, -0.04954389, -0.03424704, -0.03488953, 
	-0.04151123, -0.01410174, 0.00070637, 0.04000926, 0.01668407, 0.03085119, 0.00472742, -0.02600998, -0.04122806, -0.04393888, 
	-0.02718320, 0.02829322, 0.00198273, 0.01763424, -0.01422258, -0.02728686, 0.02333132, 0.03491344, 0.04270786, 0.04054263, 
	0.03806163, 0.04308850, 0.02561325, -0.03951527, -0.02216158, 0.02525350, -0.04379387, -0.01358984, -0.01628256, -0.03612315, 
	-0.01744931, 0.04940350, 0.00902104, 0.03645543, -0.01239895, 0.01105887, 0.03836147, -0.04747083, -0.02916679, 0.04395134, 
	-0.02371699, 0.02008070, 0.01642025, 0.02554428, -0.03495622, -0.04169319, 0.00430185, 0.04330036, 0.04691225, -0.02422418, 
	-0.00775065, -0.03810582, -0.02166939, -0.03518874, -0.03311786, 0.04198719, 0.01291631, -0.05374966, 0.04151365, 0.00761484, 
	0.02706505, -0.02598416, -0.05275576, 0.00955543, 0.01242739, -0.04335443, -0.03517446, -0.00271748, 0.01060607, 0.00099143, 
	-0.03180559, -0.02132856, -0.02170947, -0.03830992, -0.05156821, -0.00761001, -0.02477806, 0.04134156, -0.04966513, -0.02136039, 
	0.00820642, -0.01125032, -0.04377238, -0.01134677, -0.04396173, -0.03385195, 0.04288124, -0.05228614, 0.00758767, -0.03308560, 
	-0.03807458, -0.01828631, -0.01023292, -0.04619433, 0.00892568, 0.01046547, 0.01612754, -0.04916840, 0.01801335, -0.02037050, 
	-0.04540941, -0.02608128, 0.04766175, -0.00353904, -0.02921071, 0.03505738, -0.04003261, -0.05270291, -0.02273738, -0.02437893, 
	-0.01559056, 0.01901465, 0.04459725, -0.01018129, -0.02643002, -0.04041982, 0.03737508, -0.05010496, -0.02759865, 0.03985392, 
	-0.05479730, 0.00168777, -0.04061437, 0.03005345, -0.03844765, 0.00156541, -0.00892576, -0.00257545, 0.01874353, -0.04832651, 
	-0.02114109, 0.02124042, -0.00905127, 0.00653057, -0.00579961, 0.04662930, -0.04483427, -0.03764520, -0.03810830, 0.01240341, 
	0.01432350, -0.00170173, 0.03917361, 0.01066805, 0.01480353, 0.04722789, 0.00908157, 0.02716320, 0.00510289, -0.00519128, 
	-0.04411840, -0.05219456, -0.00499648, 0.01388827, 0.00264327, -0.01033315, 0.03302626, -0.00869519, 0.03754225, -0.04898687, 
	0.00982178, -0.04169455, -0.00645197, 0.00272338, 0.03278635, -0.01219434, 0.01959357, -0.02523331, 0.00099662, -0.00654761, 
	-0.02448375, -0.00558406, -0.01795769, 0.02162199, 0.04242837, -0.05468105, 0.02516397, 0.01656953, -0.01007612, 0.01689481, 
	0.03672114, 0.01867803, -0.03117838, -0.03695755, 0.01145827, -0.04268479, -0.02687694, -0.01791300, -0.02698315, -0.04533295, 
	0.01863725, -0.03890960, 0.01222043, 0.00611789, 0.03489328, -0.01312233, -0.03801155, 0.03672127, -0.01341289, -0.05359776, 
	-0.04374621, -0.01914307, -0.05372150, 0.01497743, 0.01675029, -0.00666910, 0.02280536, -0.00500598, -0.00171266, 0.00183603, 
	-0.00436620, 0.01636150, 0.04094348, -0.04176307, 0.01266348, 0.03427391, 0.01233368, -0.01380916, -0.02010558, -0.04884647, 
	0.04202736, 0.02856976, -0.00230838, -0.03913941, -0.04857542, 0.03724222, -0.03095868, 0.00516547, -0.03903135, 0.03607894, 
	0.03070798, -0.05330411, 0.01896599, 0.03185831, -0.01309811, -0.02036944, -0.02311040, -0.02869344, -0.05406484, 0.04215388, 
	-0.04955386, 0.04058026, 0.04124941, 0.01670524, -0.02637373, 0.00153927, -0.01800979, -0.04921960, -0.03440258, 0.01907331, 
	-0.04021659, 0.00575028, 0.03110613, 0.03272252, -0.02820791, 0.04354617, 0.03202851, -0.02548162, -0.00747329, 0.04058889, 
	-0.00403162, 0.00080866, 0.01409193, 0.03100134, -0.00152901, 0.03650958, -0.03773494, 0.04356723, 0.01784143, -0.01522289, 
	-0.03814403, -0.03539202, -0.03911123, -0.02432975, -0.04214159, 0.00171109, 0.02769852, 0.04504784, -0.05249916, 0.02431961, 
	-0.01743080, -0.04771870, -0.00692044, 0.00474850, -0.01017648, -0.03278475, 0.02232607, 0.01331484, -0.00728031, 0.00815724, 
	-0.03719299, 0.04155087, -0.04173724, -0.02604421, -0.00595371, 0.03596550, 0.01418691, -0.02247206, 0.00494638, 0.00116953, 
	-0.00351116, -0.02568487, 0.03733762, 0.02593906, -0.05221327, -0.03317780, 0.01664612, -0.01286556, 0.01060653, -0.05092065, 
	0.01217926, 0.00302831, -0.03159803, -0.03401731, -0.04753763, 0.00288679, -0.04389461, -0.01432712, -0.05317307, -0.02296565, 
	0.03478845, 0.00522152, 0.02266103, -0.05193608, -0.01610120, -0.03210974, 0.01546135, -0.01712976, 0.01575745, -0.00626855, 
	0.03159880, 0.04247597, 0.03711246, 0.00775721, -0.00525629, -0.02779681, 0.01448664, -0.00464044, -0.01266752, 0.02258823, 
	-0.01947705, 0.04217628, 0.03665309, -0.02770977, 0.03668552, 0.03935318, 0.02755537, -0.02855102, 0.00012674, -0.04196250, 
	0.01321370, 0.00116285, 0.02218587, 0.03069433, -0.00633225, 0.03171279, -0.04144051, -0.01351905, -0.01212786, 0.02173072, 
	0.03155937, -0.04828078, 0.01854041, 0.03413843, -0.03264286, -0.03453170, 0.04274242, 0.03701435, -0.02332735, -0.05005535, 
	0.03858647, -0.00576147, 0.03646217, -0.03239457, 0.01476305, -0.05186717, -0.02706595, 0.04081456, 0.02338361, 0.02650297, 
	-0.01549922, -0.00706739, -0.02930762, -0.01746240, -0.02627830, 0.00577643, 0.03969258, -0.01609829, -0.05170644, 0.01228640, 
	0.01131956, -0.00591386, -0.02339001, -0.02871380, -0.00181207, -0.01567024, 0.00491095, -0.01138557, -0.02438017, 0.03949901, 
	0.04195698, -0.01896934, 0.02175107, 0.01697048, -0.04737009, 0.01645063, -0.00791116, 0.02981577, 0.04051851, -0.00768544, 
	0.01785702, 0.03381392, 0.00208499, -0.04495931, -0.02655747, -0.04111724, -0.05189774, 0.00808932, -0.01352137, 0.00758251, 
	-0.03495588, -0.01297696, -0.04211748, 0.01722601, -0.04689515, 0.01752919, -0.03886277, -0.02611609, 0.03248248, 0.02627512, 
	-0.02787806, -0.01652945, 0.00552077, -0.02609795, 0.04307793, 0.02917941, 0.04212979, -0.04942081, 0.02228997, -0.01890799, 
	-0.00876653, 0.02168257, 0.00161725, -0.00681074, -0.02975615, 0.03275800, -0.02931671, -0.02107285, 0.02888719, -0.03756259, 
	-0.02958618, -0.02760777, -0.02363254, 0.04054706, -0.04328434, 0.03310847, -0.00861572, 0.03295136, -0.00466868, -0.05283173, 
	0.00944105, 0.04393621, 0.03656929, 0.02088341, -0.02623315, 0.04297581, -0.01260787, -0.04987776, -0.04287092, -0.04629602, 
	-0.00351596, -0.04893698, 0.04314548, -0.03260695, 0.00826268, 0.00320303, -0.00913484, -0.03004924, 0.03694903, -0.04107159, 
	0.03032149, -0.01962455, 0.04135947, 0.00432840, 0.03139106, -0.01048788, -0.01609653, -0.02418777, -0.01383858, -0.04331445, 
	-0.02297415, -0.00284650, 0.04393191, 0.01937193, -0.03789421, 0.01269659, -0.03530172, 0.01198858, 0.00711879, 0.03635455, 
	0.00401435, -0.04396231, 0.00445673, 0.03231466, -0.04010361, -0.04833869, -0.02849243, -0.02580027, 0.04253909, -0.05152642, 
	-0.03087995, -0.01026716, -0.03024290, -0.02695303, -0.03743193, 0.01548910, -0.01130045, 0.03043368, -0.01175267, 0.02939029, 
	0.01747486, 0.01193100, -0.02016225, 0.04134045, 0.02434019, -0.04905329, 0.02513394, 0.04244243, -0.02425390, -0.04509673, 
	-0.04010053, 0.03221954, 0.04010479, 0.02534322, -0.01505326, -0.04271695, 0.01656800, -0.00901350, 0.03804199, -0.05060877, 
	-0.02934544, 0.00999628, -0.03532530, 0.00069679, -0.04361993, 0.02712805, -0.01527164, 0.03849806, 0.03949351, -0.01881214, 
	0.03049072, -0.01493375, -0.00614565, -0.01710379, 0.03131291, -0.00324154, 0.03456244, 0.04404907, 0.00215149, 0.01095460, 
	-0.00495371, 0.02446890, -0.02345094, -0.04683524, 0.02147134, 0.02198397, -0.01283570, 0.03857034, -0.01780140, -0.01299309, 
	-0.01178397, 0.02333035, -0.04648799, -0.01561422, 0.03797816, 0.02560658, -0.04002510, 0.01770134, 0.02711983, 0.00981010, 
	0.03982499, 0.03062175, 0.03415942, -0.02439459, 0.04066397, 0.03835336, 0.03495595, -0.03628505, -0.04581020, 0.03068765, 
	0.01118465, 0.03581822, -0.03335000, -0.02103990, -0.02580092, -0.03477822, -0.04481900, -0.00614220, 0.04560282, -0.01060607, 
	0.03696261, 0.06292060, 0.01339110, 0.04657824, 0.00675352, 0.04973312, 0.02396226, 0.00732706, 0.02479620, -0.02759919, 
	0.01536522, 0.00658329, 0.01149436, -0.03515822, -0.00006500, 0.04561798, 0.03924954, 0.01741041, -0.02139756, -0.00647109, 
	0.01709364, 0.00190291, 0.05549214, 0.06718662, -0.01149969, 0.06366123, -0.01458586, 0.00753324, 0.03853349, 0.01596040, 
	0.01529330, -0.00225278, -0.02736737, 0.07983070, 0.00933831, 0.03872580, 0.07919136, -0.03594518, 0.05395734, 0.06448472, 
	0.05615341, 0.02696510, -0.01135091, 0.02883625, 0.03911621, -0.03655495, 0.07216421, 0.02699223, 0.01736209, 0.07674963, 
	0.07714569, -0.01155526, 0.00007300, 0.04603591, -0.01856192, 0.01746652, 0.03854921, 0.01929807, 0.03031893, 0.03421539, 
	-0.03518171, 0.04293655, -0.02348586, -0.02208261, 0.01650533, 0.02351547, -0.00724811, -0.01057740, -0.03248603, 0.00828775, 
	0.00421782, 0.04501742, 0.08589988, 0.03794797, -0.01392127, 0.01087686, -0.00003655, 0.08058564, 0.03030629, 0.05023309, 
	-0.00029665, -0.02074589, 0.04827260, 0.06566454, 0.06374683, 0.00642492, 0.03569150, 0.05024011, 0.06868795, 0.04655671, 
	-0.02778526, -0.01214083, 0.02815363, 0.02505111, 0.01942527, -0.03204104, -0.01833283, -0.04185128, 0.01018247, 0.03853008, 
	-0.04481921, 0.02447615, -0.01574261, 0.03857732, 0.02635761, 0.04805201, 0.01217864, 0.03253420, -0.00890989, -0.02496194, 
	0.06641042, -0.00735577, -0.01395361, -0.01788181, 0.02602387, 0.03006854, 0.07301535, -0.00607506, 0.04133542, -0.07068627, 
	-0.05993647, -0.00361719, 0.03951556, 0.05094957, 0.02204712, 0.01365942, 0.04192700, -0.00851006, 0.09247613, -0.00650133, 
	0.00178705, -0.06774380, -0.03041261, 0.00783017, 0.06762756, -0.02900535, -0.00737092, -0.01249825, -0.02874799, -0.02704609, 
	0.03329451, 0.03115079, 0.01042261, -0.04012366, -0.01020806, 0.04769828, 0.07996850, 0.06572346, 0.04675769, -0.01034300, 
	0.00286906, 0.08173941, 0.07337049, 0.02115948, 0.02352113, 0.04039362, 0.02149367, 0.06158897, 0.04984255, -0.00152032, 
	0.06820800, 0.03175433, 0.00102510, 0.04684424, 0.03298161, -0.05829956, -0.04569722, 0.00246333, 0.01969950, -0.06548913, 
	-0.07371005, -0.03618365, -0.04508148, 0.02398604, 0.01719883, -0.01755193, 0.05720127, 0.01575148, 0.03115684, 0.02127648, 
	0.05885158, 0.03779289, 0.02175041, 0.03538993, -0.04862521, 0.01160299, 0.03018811, 0.05425755, 0.02810714, 0.03060199, 
	0.00759805, 0.02107512, 0.02902579, 0.06192534, 0.04310551, 0.01033031, 0.03405933, 0.04375623, -0.01768701, -0.00494431, 
	0.02849196, 0.04160339, -0.04646759, 0.00980122, 0.03690396, 0.01333903, 0.04155493, 0.00693419, -0.01426282, -0.03006825, 
	-0.01782783, 0.00695315, 0.03307163, 0.04851414, 0.03204729, -0.00145758, 0.05004964, 0.04039499, 0.07627558, -0.00159250, 
	-0.00084791, 0.04927327, 0.03161760, 0.05043605, 0.04216462, 0.03426609, 0.03698359, 0.03199016, -0.00141423, -0.03523988, 
	0.00811138, 0.04549489, -0.01282923, 0.00547578, 0.03688072, 0.02847498, -0.03528538, 0.04541129, 0.02731085, 0.02210113, 
	-0.04148654, -0.02209691, -0.00381082, 0.01295591, 0.04886802, 0.02675456, 0.00433860, 0.02084348, 0.01788077, -0.04128615, 
	0.04377842, 0.00996194, -0.03190506, 0.00852780, 0.04404378, 0.03722581, -0.03035710, -0.04148769, 0.04206533, -0.02184094, 
	0.01190091, -0.01265132, 0.03889045, 0.00250177, 0.03654440, -0.01645216, 0.01860058, -0.02787712, -0.02711352, -0.01082448, 
	-0.01968553, 0.01906404, 0.06414714, 0.03290379, -0.02470795, 0.03272662, 0.02765578, 0.03336458, 0.00197025, 0.00782646, 
	-0.03314184, -0.01914406, 0.01871844, 0.02337184, 0.00992680, 0.06649986, 0.06042738, 0.04525781, 0.05103548, 0.02380385, 
	0.03896559, -0.01444876, -0.01312640, 0.02911005, -0.02359809, 0.00705438, -0.04589164, -0.02699335, -0.03313453, -0.02494776, 
	-0.02664729, -0.05670771, -0.01775043, -0.04366925, 0.04911710, 0.05052253, 0.03301924, 0.00792796, -0.02741293, -0.01333290, 
	-0.00773793, 0.01796041, 0.03420009, 0.02817876, 0.03939410, 0.06961254, 0.03688133, 0.04704795, 0.05426044, 0.05895675, 
	-0.03493002, 0.01450688, -0.04116696, -0.02070757, 0.04300821, 0.04933273, 0.06322518, 0.00718949, 0.07176282, 0.07976728, 
	0.06078333, 0.00343809, -0.05336174, -0.03994178, -0.03903758, 0.11921454, 0.00936079, -0.03732459, -0.01222739, -0.01609886, 
	0.10415825, 0.00012722, 0.06453701, 0.00847111, 0.04266287, 0.05664629, 0.08079557, 0.10546521, 0.07899679, 0.06056124, 
	0.00165240, 0.03702455, 0.04091258, -0.02475127, -0.01019011, -0.02614403, -0.00219584, 0.00542220, 0.03675097, 0.05989793, 
	0.05831661, -0.01515446, -0.02126347, 0.00210594, 0.06143721, -0.01232689, 0.04506623, -0.02350160, -0.03557589, 0.05916771, 
	-0.03990453, 0.00983561, 0.03464674, -0.01871420, -0.04134202, 0.07696795, -0.03614570, -0.07859304, -0.02960755, -0.02598553, 
	-0.03523073, 0.01320783, 0.01150580, 0.04171767, 0.05025851, -0.01603930, 0.00338300, -0.03376944, 0.04124152, -0.02194882, 
	0.04396032, 0.03133241, 0.00617678, 0.04066002, 0.01631602, 0.00401721, -0.00851220, 0.02923637, 0.04643619, 0.01774519, 
	-0.01967099, 0.02010570, -0.04973786, -0.01769470, 0.03951728, 0.02359251, -0.03957553, -0.05164144, -0.04694329, -0.03536791, 
	-0.01020554, -0.00887950, -0.03955276, 0.03782259, -0.03244313, -0.01395126, 0.02592252, 0.04005940, -0.02158299, -0.01458717, 
	-0.05742539, 0.00786926, 0.02031200, 0.04000299, -0.00780983, -0.01746019, 0.00015019, -0.05374503, -0.00293366, -0.01075105, 
	-0.00216447, -0.00064508, -0.01811639, 0.00662020, -0.02729764, 0.03207634, 0.00542349, 0.02514125, 0.00471308, -0.01691095, 
	0.03910422, 0.01879602, 0.01019406, -0.04324033, -0.05569509, 0.01948726, 0.02033419, -0.03543462, -0.04989776, -0.05290795, 
	0.02064728, -0.03476557, 0.03811873, -0.04483709, 0.00890875, -0.01384145, 0.01326437, -0.05514557, 0.03967215, 0.01073609, 
	-0.02129849, 0.04041436, -0.05285840, 0.02858866, -0.04190373, -0.00165885, 0.01293985, -0.01722527, 0.01357367, 0.01742016, 
	-0.00712136, 0.00248508, 0.03094481, -0.02702990, 0.03668675, 0.03010737, -0.04851657, -0.00621852, -0.03861979, -0.05231590, 
	-0.04949944, 0.02787641, -0.02722751, 0.03855699, -0.04893152, -0.02841580, 0.01399703, 0.04069475, 0.00092216, 0.01496844, 
	0.01713427, 0.03256062, 0.00391204, -0.03491938, -0.05455225, -0.00981419, 0.02338213, -0.04034828, -0.00814008, -0.01862196, 
	-0.02149349, 0.01484251, -0.01134211, -0.00508550, -0.05759775, -0.01579867, 0.01235567, -0.00577716, 0.03791203, 0.02674293, 
	-0.04976005, -0.03025418, -0.05122509, 0.01219219, 0.00307919, -0.00116939, 0.03866532, -0.02460396, -0.05095003, -0.03695210, 
	-0.03876128, 0.01270402, -0.02708191, -0.03897379, 0.01677800, 0.03202464, 0.02994142, 0.01178749, -0.03255136, 0.04101283, 
	0.02152025, -0.05466212, 0.02739355, -0.01983978, -0.04355592, 0.00782536, -0.00862934, 0.04160706, 0.03954632, -0.02132865, 
	-0.00465268, -0.02216958, -0.02025981, 0.02447744, -0.01217655, -0.04738659, -0.03592160, -0.04116803, 0.01002550, 0.01320361, 
	0.00522696, -0.04414805, -0.00303096, -0.00390782, -0.04519223, -0.02877375, -0.04981272, -0.01899177, -0.03441318, -0.04960114, 
	-0.03622798, -0.00515263, -0.01242416, -0.01241998, -0.04748520, 0.01388403, -0.00599607, -0.04289384, -0.03478707, -0.01862660, 
	0.03171414, -0.02826897, -0.04454507, 0.02574405, 0.03424026, -0.01982826, -0.02774986, 0.01326314, 0.03232845, -0.02210572, 
	0.00003029, -0.00321143, -0.00707760, -0.04229662, -0.00872451, -0.01035290, 0.01335985, -0.05734980, -0.01973605, -0.04935245, 
	-0.02482657, 0.01547743, -0.02708887, 0.00170536, 0.01298142, -0.03858089, 0.02755715, -0.01789729, -0.03413587, -0.01925389, 
	-0.05156719, 0.03133811, -0.03943964, 0.02564555, -0.02910924, 0.01500322, -0.01713249, 0.03165348, -0.03670971, 0.00308335, 
	-0.03375899, -0.02315593, 0.01433222, 0.03130517, 0.00895809, 0.01844819, 0.02892393, -0.01078968, -0.01800224, -0.04541009, 
	-0.00001572, -0.00570551, -0.02239651, 0.03173764, -0.00949903, 0.04288010, 0.01655566, 0.00174208, -0.02529116, 0.03839042, 
	0.02400038, 0.00194097, 0.03806788, -0.00896697, -0.04249613, -0.02714132, 0.01783272, -0.03776527, -0.04212037, -0.03236460, 
	0.00921838, 0.04212490, 0.00280783, -0.02196898, 0.00572947, -0.03136937, -0.03074828, 0.04862031, 0.00360355, 0.04696685, 
	0.00274293, 0.00645064, -0.03545198, -0.03350770, 0.02885931, -0.01654058, 0.03671878, -0.03493165, -0.04744035, 0.02944533, 
	0.02957189, -0.05596948, -0.00649664, -0.03059506, 0.01933293, 0.03752322, 0.01189454, -0.00611286, -0.01069865, -0.02305244, 
	-0.02880403, -0.03904060, 0.01226135, 0.01547432, 0.00217663, -0.01881292, 0.00372524, -0.02884351, 0.02060097, 0.04094081, 
	0.01268639, 0.02103173, -0.02060041, 0.02744211, 0.02097144, -0.02692717, -0.03097310, 0.04060565, 0.00731735, -0.03069813, 
	0.00584804, -0.03485428, 0.00161513, -0.05225917, -0.03318186, 0.04299000, -0.01037851, -0.02419223, 0.01192815, 0.03905888, 
	0.02099226, -0.03364843, -0.04663946, 0.01026203, 0.00960569, -0.02825143, -0.00498343, 0.01107306, 0.01848344, 0.04072136, 
	0.03371123, 0.01456202, 0.02695629, -0.04809126, -0.03675171, 0.03982260, 0.03306045, -0.01095827, 0.02343265, 0.03560404, 
	-0.02517419, 0.01704592, 0.03826134, -0.02267882, -0.04625935, 0.02086480, -0.00044885, 0.02249986, -0.03102935, -0.01724320, 
	-0.03800052, -0.02640168, -0.02120563, 0.01661211, 0.02907666, -0.03649175, -0.03843702, -0.01463276, 0.01999161, 0.04332642, 
	-0.01446342, 0.02330691, 0.00141386, 0.04711474, 0.01384125, -0.04729563, 0.02141669, -0.05056617, -0.01504566, 0.00631308, 
	-0.04204688, -0.03748434, -0.05747075, 0.02704002, 0.02099804, 0.04052461, 0.04127352, -0.00524687, -0.04765825, -0.04998352, 
	-0.02712255, -0.01359753, -0.05107407, 0.00531818, 0.03784992, 0.01059604, 0.02819064, -0.00721396, -0.00891996, 0.04082488, 
	-0.00714650, 0.01816135, -0.03877329, 0.02734003, 0.00353160, 0.03920429, -0.02864619, 0.02663768, 0.01553107, 0.03368759, 
	-0.01963949, -0.02609790, 0.02081291, -0.05309301, 0.02781244, 0.01444738, -0.00376440, -0.02521198, 0.04193509, 0.03779376, 
	0.01487459, 0.02216488, -0.03100902, 0.02368307, 0.01028206, -0.03960292, -0.01102351, -0.03934631, 0.01455828, -0.00045326, 
	0.04491790, -0.01833314, 0.02213011, -0.01216459, -0.03071800, 0.00918381, -0.02865854, 0.00574849, -0.05220002, -0.01742245, 
	0.03176031, 0.00956450, -0.01321494, 0.02659149, -0.04771745, -0.02865637, -0.00357132, -0.03172975, -0.03383340, 0.02808208, 
	-0.00377664, -0.00208640, -0.00356635, 0.03349555, 0.01611552, 0.02017610, -0.01444234, 0.01591552, 0.01891700, -0.01973854, 
	0.01940469, -0.02889654, -0.03955858, 0.02193771, -0.02717039, -0.05118484, 0.03698322, 0.00872311, 0.02750862, 0.01496182, 
	0.00990235, -0.05247067, -0.03432708, -0.00712645, 0.01174992, -0.00882271, -0.05184879, 0.03646054, -0.00302498, 0.03179205, 
	-0.01469148, 0.03031408, 0.04037144, 0.03291626, -0.04614017, 0.03229452, -0.03787602, 0.03952921, 0.01918587, -0.02140561, 
	-0.00062808, -0.01133163, -0.02050360, 0.03750187, -0.02306639, 0.03404573, 0.03638516, 0.00761086, 0.03959763, -0.04311984, 
	0.04094679, 0.02088959, -0.04180286, 0.00171132, 0.03053270, -0.01213085, -0.01085629, 0.01701576, -0.03379861, -0.02781094, 
	-0.02937629, -0.00051991, 0.01478047, 0.02364246, -0.00396039, -0.03452950, -0.04692836, 0.04349716, -0.05201976, -0.04275519, 
	0.03940906, -0.03986121, -0.02905408, -0.03009240, -0.03626592, 0.02611721, -0.02847621, 0.02439203, -0.04769676, -0.03072242, 
	0.04460495, -0.03769207, -0.04103497, -0.02784427, -0.02972659, 0.02168446, 0.02055141, 0.01549761, 0.02744960, -0.03209022, 
	0.01934793, -0.03073609, 0.00120956, -0.04362582, 0.03497684, -0.05101473, -0.04013942, -0.02028229, 0.00856374, 0.00138227, 
	0.03479965, -0.02132808, 0.02300531, -0.01448166, -0.05040233, 0.03484021, 0.04158698, -0.00597799, -0.02420415, 0.00147670, 
	-0.03634410, -0.00966616, 0.02439168, 0.00053207, 0.00357898, -0.01325508, -0.03729501, -0.05029071, 0.00294123, -0.04970386, 
	-0.05075252, 0.01078251, -0.04942282, 0.01378096, 0.03032651, -0.03005496, -0.03084929, 0.03675329, -0.01855748, -0.02079155, 
	0.01184983, 0.00942119, -0.01943678, -0.03836544, -0.00430131, -0.04319093, -0.03355682, 0.04501436, -0.01078122, 0.01356352, 
	-0.04771345, -0.01590251, -0.03558424, 0.00125001, -0.03097462, -0.03269695, -0.03598330, -0.00965337, 0.02169205, -0.04161347, 
	0.01028908, 0.02189971, 0.00673687, 0.02240466, -0.01178268, 0.03884781, -0.03446665, -0.03655583, -0.04150535, 0.02793980, 
	-0.04943828, -0.04276833, 0.03241972, 0.02453554, -0.00023526, -0.04850086, -0.02528338, 0.01049098, 0.01259603, -0.02308587, 
	-0.00449949, -0.01133523, -0.01652660, -0.05167984, 0.00775033, -0.05143040, 0.01389672, -0.03292554, -0.02151503, 0.00307723, 
	0.00806829, 0.00804636, 0.04105267, 0.01933504, -0.02508127, -0.01815560, -0.05335489, 0.01092152, -0.01741260, 0.00576207, 
	0.03819454, 0.01094557, -0.01680368, -0.01746349, -0.04627620, -0.00821651, -0.01596579, -0.04294111, -0.00288262, 0.01102458, 
	0.03065414, -0.00668224, 0.00127612, -0.01067994, 0.02668110, 0.03152021, -0.02025425, 0.03451465, 0.03092888, -0.03355455, 
	-0.03184696, -0.04984777, -0.03403632, -0.00206047, 0.03076300, -0.04077683, 0.03164122, 0.00887460, 0.02083686, 0.01682603, 
	-0.04672165, 0.02033054, -0.01395757, 0.00620018, -0.01066612, -0.03751211, 0.01115925, -0.00008395, 0.00344069, 0.01653770, 
	-0.03346458, -0.04188583, 0.03487968, 0.00009442, 0.04150105, -0.03821314, -0.05311512, 0.00517779, -0.03929316, 0.03349387, 
	0.04081783, 0.00111572, 0.03652726, 0.03912101, -0.04459445, -0.01130173, -0.03663563, 0.01684764, 0.02391446, -0.02552190, 
	-0.02173690, 0.04440007, -0.05324725, -0.02948104, -0.01269328, -0.00140792, 0.00574063, 0.00054750, 0.03736903, 0.03169952, 
	-0.03475478, -0.00826742, 0.00744458, 0.00945221, -0.03047476, 0.01815378, 0.03850456, 0.01856574, -0.04128982, 0.01065657, 
	-0.01157468, 0.00501181, 0.00831022, 0.00972204, -0.04392286, 0.00227644, -0.01850134, 0.01799609, -0.05085501, -0.01291675, 
	-0.02879997, -0.03443837, -0.00919815, 0.03442631, -0.02285288, -0.03809113, -0.04421224, -0.00129947, -0.03036739, -0.01946378, 
	0.02077419, -0.00122166, -0.00258559, 0.03605339, -0.00037491, 0.01033931, -0.03877983, 0.00004002, 0.00397759, -0.00869797, 
	-0.03891765, -0.03603734, -0.03729295, -0.05007811, 0.03227453, -0.00987462, -0.00692369, 0.02813299, 0.05107365, -0.03390979, 
	-0.03587233, -0.00072186, -0.01447042, -0.03004025, -0.03916311, 0.01183815, -0.02380971, -0.05243565, 0.01962968, 0.02500526, 
	0.02716320, -0.02385370, -0.02211152, -0.03895786, -0.04893824, 0.00882266, -0.00673663, -0.03326071, 0.03697354, 0.03104013, 
	-0.00561772, -0.04920894, -0.00767964, 0.03960466, 0.01728930, 0.01410852, 0.00888798, -0.04748121, -0.01248731, 0.01434169, 
	0.02817225, -0.04858314, -0.03568038, -0.00574057, -0.01561697, -0.04771847, -0.04391380, 0.03195534, 0.03242325, -0.04904741, 
	-0.01747855, 0.04833933, 0.00812770, -0.02398762, 0.02778938, 0.01800452, 0.03749721, -0.01823443, -0.03458878, 0.00744236, 
	-0.03223454, -0.02306437, 0.00140367, -0.03328396, 0.01423579, 0.01181968, -0.01381658, -0.00386937, 0.02168781, -0.02247503, 
	0.05050433, 0.01891228, -0.03167271, -0.02939762, 0.01066678, 0.02704195, 0.00132702, 0.00102717, -0.01884197, 0.03749057, 
	-0.00425895, -0.05673775, 0.02955394, 0.02393414, 0.04162024, 0.02293874, -0.04599104, 0.00611880, 0.00972181, -0.02246372, 
	0.00041583, 0.00781605, -0.00061876, -0.01462394, 0.00137572, 0.01523311, 0.02066078, 0.01926091, -0.04299220, 0.02796401, 
	-0.01279756, -0.00254522, 0.03022483, 0.00480162, -0.02869706, -0.03053856, 0.03711793, -0.03581263, -0.04499029, -0.03182191, 
	-0.01120358, 0.00430289, -0.00665196, -0.00591235, -0.01485384, -0.01561221, 0.02972270, -0.01409698, -0.00470703, -0.02401495, 
	0.04020988, 0.01705612, 0.00893801, -0.04090144, -0.01876286, -0.02891592, 0.02617125, -0.04059849, -0.04910530, 0.02922243, 
	-0.04202492, 0.00075950, 0.00154124, 0.00898125, -0.05388479, -0.03069370, -0.02818141, 0.01505094, 0.01186236, -0.02458176, 
	0.02914418, -0.04782488, 0.01396535, -0.02692075, -0.04375441, 0.02895469, -0.04030829, -0.00137525, 0.02595071, 0.01482278, 
	0.03778927, -0.03659092, 0.00311111, 0.01667766, -0.04617558, -0.03036836, -0.03398764, 0.01132958, 0.04040957, -0.05554855, 
	0.00561233, -0.00098911, -0.05138779, 0.03170061, 0.03357253, -0.02324070, -0.02711976, 0.03725830, 0.01873278, 0.00839671, 
	-0.02633292, -0.04312840, -0.02703907, -0.02928065, -0.03642862, 0.02880572, 0.03549299, 0.00842401, -0.00213358, -0.01710714, 
	-0.04684810, -0.04584464, 0.02876755, -0.05594026, 0.01975560, -0.00328049, 0.00932040, 0.00188190, -0.02506624, -0.02175156, 
	0.01226348, -0.02826547, 0.03689002, -0.05699170, -0.05135361, 0.02128353, -0.01339547, 0.02044943, -0.03564040, 0.01255596, 
	0.01586696, -0.02220432, -0.04711400, 0.01307395, 0.03493505, -0.00904579, -0.05475641, -0.01661526, -0.03895006, -0.03963497, 
	-0.05011730, -0.00808173, -0.01217549, -0.05449252, 0.03906811, -0.02425934, -0.00523232, -0.04778863, 0.02636660, -0.03551393, 
	-0.00696710, 0.01963141, -0.05388384, -0.02443149, -0.03647355, -0.01130288, -0.02864460, 0.02853056, -0.05680001, 0.04000426, 
	0.02504077, 0.01913353, -0.01014476, 0.02559604, 0.03018807, -0.00471065, -0.04910458, -0.01355262, 0.03488025, -0.05234339, 
	-0.05375853, -0.02446360, -0.01046504, -0.05365290, -0.00199805, -0.04635183, -0.01264997, 0.03903630, -0.03690447, 0.00363899, 
	0.01129126, 0.02192239, 0.03524232, -0.03112807, -0.04750898, -0.02156261, 0.00575708, 0.02260127, -0.04548480, -0.05155292, 
	0.01707851, -0.03313496, -0.03705648, -0.01729877, -0.05181586, 0.02550295, 0.03561901, 0.00782077, -0.01043349, 0.00708833, 
	-0.00125335, -0.02928588, -0.03756023, 0.01711014, 0.03243727, -0.02376639, -0.02220297, -0.02461515, -0.02477040, 0.03269991, 
	-0.00782793, -0.00818075, -0.02488287, 0.03910169, 0.03186319, -0.02674949, -0.05622276, 0.01576008, 0.01772181, -0.03488286, 
	0.01126693, 0.00364147, 0.02635237, 0.03389229, -0.02023138, -0.05559495, -0.02722294, -0.02767155, 0.02072348, -0.05135825, 
	0.04162071, 0.01992777, -0.05689419, -0.01043554, -0.00187253, 0.04013938, -0.01981315, -0.02569344, 0.03800314, -0.02286590, 
	0.04246740, -0.01489038, -0.00508215, -0.03534378, -0.02755525, -0.02310008, 0.03737895, 0.04670758, -0.00431497, 0.00833689, 
	-0.02169638, -0.02384184, -0.04053223, 0.03401500, -0.00401025, -0.04179837, 0.00665675, 0.04932535, -0.03968364, 0.03514041, 
	0.00781686, -0.05427913, -0.04234586, 0.02076348, 0.01545906, 0.01745392, -0.01092572, 0.03246142, -0.03189185, 0.02114533, 
	0.02944712, -0.04818055, -0.01421220, 0.00896287, 0.00480973, 0.02005704, 0.03037076, 0.03046246, 0.01245264, -0.03793477, 
	-0.02418314, 0.00023033, -0.04974462, 0.00649858, 0.03535026, -0.01944584, -0.02221497, 0.01319135, -0.05181421, 0.01501343, 
	-0.01714276, -0.04263797, -0.03699214, -0.02749878, 0.00356939, 0.03618196, 0.01711821, 0.01946523, 0.01852373, 0.02865546, 
	0.04207965, -0.01838516, 0.02859160, 0.00312163, -0.05590438, -0.04501135, -0.00217572, 0.02820021, 0.04067225, 0.03883358, 
	-0.02786971, 0.00021913, -0.00292725, -0.05356937, 0.00559585, 0.01520541, 0.01942543, 0.00628304, -0.03151992, -0.04865906, 
	-0.04535977, -0.04096520, -0.05565921, -0.03367568, -0.02939041, -0.05007141, -0.02297877, 0.00024134, -0.02869686, 0.00862684, 
	0.00424252, -0.03332065, 0.03433071, 0.01762966, 0.04047463, 0.03952747, 0.03069719, 0.03866412, -0.04142834, -0.04053900, 
	-0.02565762, 0.01291539, -0.02751038, -0.01691573, 0.01159063, -0.01014582, -0.01959950, 0.03330994, 0.02512706, -0.02336211, 
	-0.04588890, 0.04307946, -0.04331545, 0.01651879, 0.03783237, -0.02166623, 0.00458607, 0.04165484, -0.03992437, -0.02365985, 
	-0.03866072, 0.01356334, -0.00316018, -0.04913058, 0.02057568, -0.01348715, -0.01590866, -0.01004549, 0.04051132, -0.05222478, 
	-0.05650873, 0.04158596, -0.02794331, -0.00085959, -0.01122082, -0.01372926, 0.01546986, 0.03093724, 0.01903697, -0.05480359, 
	-0.01680958, 0.05088373, 0.01377140, -0.03320018, -0.01729785, -0.01746795, -0.02415438, -0.04430661, 0.01075340, 0.03370649, 
	0.01625369, -0.00765576, -0.03550695, 0.03947329, -0.05478972, -0.04244649, 0.00654637, 0.01577534, -0.02863022, -0.02909226, 
	-0.00092121, -0.00861610, 0.01042918, -0.01802825, -0.01620905, -0.01784223, 0.00494210, -0.03732646, 0.02457992, 0.03647810, 
	0.01243312, -0.04147426, 0.03071824, 0.00341990, 0.01139501, -0.03807147, -0.02957951, -0.00049709, 0.02936845, -0.00116422, 
	-0.01161718, 0.03275828, -0.01972535, -0.02570374, 0.01771595, -0.03367770, -0.02343734, 0.04103847, 0.01927751, -0.00619623, 
	0.00995739, 0.03934653, 0.04425430, -0.00056488, -0.00796244, 0.00711818, 0.01570882, -0.05155826, 0.01207249, -0.02805807, 
	-0.01241975, -0.00649765, 0.01797531, -0.04869364, 0.00275048, -0.02241180, -0.02899506, -0.02440556, -0.01587650, -0.04589019, 
	0.04590550, -0.03369385, -0.04173904, -0.04091757, -0.02285455, -0.04131994, 0.03951243, -0.04702548, 0.01961500, 0.03774843, 
	-0.01120841, 0.00522218, -0.00074653, -0.01589182, -0.05246010, -0.02453030, 0.03365208, -0.03172955, 0.02460919, 0.02042348, 
